/* USER CODE BEGIN Header */
/**
  ******************************************************************************
  * @file    i2c.c
  * @brief   This file provides code for the configuration
  *          of the I2C instances.
  ******************************************************************************
  * @attention
  *
  * Copyright (c) 2023 STMicroelectronics.
  * All rights reserved.
  *
  * This software is licensed under terms that can be found in the LICENSE file
  * in the root directory of this software component.
  * If no LICENSE file comes with this software, it is provided AS-IS.
  *
  ******************************************************************************
  */
/* USER CODE END Header */


/* USER CODE BEGIN 0 */

/* USER CODE END 0 */

float in[24][1] = {{0},  {0},  {0},  {0},  {0},  {0},  {0},  {0},
				   {0},  {0},  {0}, {0}, {0}, {0}, {0}, {0},
				   {0}, {0}, {0}, {0}, {0}, {0}, {0}, {0}};

float w1[64][24] = {
	{-0.4839252531528473, -0.1602604240179062,  0.3971084654331207,
	 1.2204383611679077,  0.029369652271270752, 0.5165848731994629,
	 -0.1430036872625351, -1.2902082204818726,  0.32910704612731934,
	 0.11634107679128647, 0.3265795111656189,   0.4266716241836548,
	 0.518498957157135,   0.05912361666560173,  -0.13018769025802612,
	 0.5282502770423889,  0.6052706837654114,   -0.43851542472839355,
	 -0.7093439698219299, -0.10492078959941864, -0.2323201298713684,
	 0.5384336113929749,  0.4932403564453125,   0.4852864444255829},
	{0.03399648517370224,  0.42524170875549316,  0.21985593438148499,
	 0.04997579753398895,  0.41174057126045227,  0.15408608317375183,
	 -0.33529531955718994, -0.1184447854757309,  0.14924831688404083,
	 0.13250455260276794,  0.3955754339694977,   0.16795450448989868,
	 0.07134237885475159,  -0.02771015837788582, 0.3483816385269165,
	 0.5072620511054993,   0.08633770048618317,  -0.22119680047035217,
	 -0.8253834247589111,  0.22120313346385956,  0.03599483147263527,
	 -2.627106189727783,   -0.8926615715026855,  0.5781738758087158},
	{-0.19258488714694977, -0.04980618506669998, -0.1373942792415619,
	 -0.5629523992538452,  0.2070143073797226,   -0.16416291892528534,
	 0.09646298736333847,  0.5008835792541504,   -0.947458028793335,
	 0.06771887093782425,  0.37994083762168884,  0.38580259680747986,
	 0.15075182914733887,  0.012907329015433788, 1.155131220817566,
	 -0.5078285932540894,  -1.4269216060638428,  0.4322454333305359,
	 0.349353551864624,	0.1638919711112976,   0.04192263260483742,
	 0.4209703207015991,   0.37232741713523865,  -2.0355827808380127},
	{-0.6328485608100891, 0.22886987030506134,  -0.41308045387268066,
	 -1.9162847995758057, -0.4639204442501068,  -0.3037833273410797,
	 -0.7942239046096802, 0.2606048583984375,   0.4797281324863434,
	 0.10679905116558075, 0.25872138142585754,  0.06821081042289734,
	 0.12635402381420135, -0.07176894694566727, 0.29477453231811523,
	 0.7643282413482666,  -0.23888540267944336, -0.2292947769165039,
	 0.7500136494636536,  0.08494407683610916,  -0.012009967118501663,
	 0.37557533383369446, 0.20745913684368134,  -0.5784218311309814},
	{-3.340369462966919,   -0.6158720254898071,  -0.23216988146305084,
	 -0.03684476763010025, 0.21132278442382812,  0.2683541476726532,
	 0.8067875504493713,   -0.7070194482803345,  -0.015403973869979382,
	 0.36457669734954834,  0.30263233184814453,  0.10994728654623032,
	 -0.09312290698289871, -0.19220620393753052, -0.6762754321098328,
	 -0.8744164109230042,  -0.1504436731338501,  -0.25610026717185974,
	 -0.09316854178905487, 0.215519979596138,	0.5423266291618347,
	 -0.6320580840110779,  -0.6066551804542542,  -0.0009329125750809908},
	{-0.09129979461431503, -0.09025456011295319,  0.44853124022483826,
	 -0.7217342257499695,  -0.5435808897018433,   0.19669798016548157,
	 0.38791900873184204,  0.11799202859401703,   0.12950202822685242,
	 0.10872122645378113,  0.13291500508785248,   -0.04653783142566681,
	 0.08675242960453033,  -0.028037454932928085, -0.15237748622894287,
	 0.07453462481498718,  -0.018931597471237183, -0.09189356118440628,
	 -0.3557637333869934,  -2.8979477882385254,   -0.4742332994937897,
	 0.2284829020500183,   0.3467327952384949,	-0.19686728715896606},
	{0.2641238570213318,  0.27631938457489014,  0.18580906093120575,
	 0.8640058636665344,  0.2669515609741211,   0.7153818607330322,
	 0.6788209080696106,  0.6343074440956116,   0.41709163784980774,
	 0.4529561400413513,  0.23331677913665771,  0.15519379079341888,
	 -1.2050514221191406, 0.21329806745052338,  0.22999052703380585,
	 0.6510473489761353,  0.633171021938324,	0.342535138130188,
	 -1.064591884613037,  -0.5571148991584778,  0.3303098678588867,
	 0.5136237144470215,  -0.03663798049092293, 0.1809842437505722},
	{-1.0492948293685913,  -0.1666889488697052,  0.027416478842496872,
	 0.15489360690116882,  0.48099517822265625,  0.28433680534362793,
	 -1.2187083959579468,  -0.38155242800712585, 0.41873782873153687,
	 0.5832566022872925,   0.2740240693092346,   -0.18651968240737915,
	 -0.17490790784358978, -0.22815977036952972, -0.30757638812065125,
	 0.17099347710609436,  -0.34839683771133423, -0.6833800673484802,
	 -0.2982707917690277,  0.22271689772605896,  0.22139312326908112,
	 -0.3161727786064148,  -0.34157148003578186, -0.3234406113624573},
	{-0.03942259028553963, 0.2206980586051941,	-0.2125779241323471,
	 0.4100188612937927,   -0.047051090747117996, -0.41782888770103455,
	 -1.0305352210998535,  0.6440369486808777,	0.1731203943490982,
	 -0.03968765586614609, -0.006986588705331087, 0.15596027672290802,
	 -0.32104453444480896, 0.20462290942668915,   -0.43198367953300476,
	 0.3148990273475647,   0.9066244959831238,	-0.49459683895111084,
	 -0.4629566967487335,  -0.28742489218711853,  0.19732747972011566,
	 0.364970862865448,	0.29161614179611206,   0.3083033263683319},
	{-0.08534637093544006, -0.47837865352630615, 0.25086310505867004,
	 -0.09815849363803864, -0.2945023477077484,  0.20596979558467865,
	 0.49633169174194336,  -0.4762037694454193,  0.2474418431520462,
	 0.12098804861307144,  0.2195139080286026,   -0.3896951675415039,
	 -0.26051628589630127, 0.5015701055526733,   -0.28331616520881653,
	 0.11740020662546158,  0.010194500908255577, -0.12766876816749573,
	 0.10472942143678665,  -0.6759050488471985,  -1.7837377786636353,
	 -0.9732481837272644,  -0.5077394247055054,  -0.410106360912323},
	{0.7758575677871704,   -0.05153395235538483, 0.3836398124694824,
	 -0.6109939813613892,  -0.2651626765727997,  -0.5207992196083069,
	 0.4928334951400757,   0.0622195228934288,   -0.013729496859014034,
	 -2.2662065029144287,  -1.2768057584762573,  0.13769374787807465,
	 0.03189905360341072,  0.028060298413038254, 0.07193852216005325,
	 0.22432668507099152,  0.010920479893684387, -0.41978323459625244,
	 0.014336369931697845, -0.2741858661174774,  -0.5330315232276917,
	 -0.22141139209270477, 0.6796346306800842,   0.13768883049488068},
	{-0.8840673565864563,  -0.2301797866821289,  -0.06401671469211578,
	 -0.7852723002433777,  -0.26829540729522705, -0.3909567892551422,
	 -0.5315290689468384,  -0.22599658370018005, -0.6680404543876648,
	 -0.9991326332092285,  0.5998113751411438,   0.5437352061271667,
	 0.5498376488685608,   -0.16637621819972992, -0.514652669429779,
	 -0.25001174211502075, 0.24434947967529297,  0.6875336766242981,
	 0.14499244093894958,  -0.1917196661233902,  -0.11137140542268753,
	 0.4813198745250702,   0.6021906733512878,   0.42483872175216675},
	{-0.47182175517082214, -0.4169608950614929,  -0.1808224469423294,
	 0.8672838807106018,   0.04229981452226639,  0.5308727622032166,
	 -0.8430050015449524,  -1.1304056644439697,  0.29845961928367615,
	 -0.17937709391117096, -0.11426104605197906, 0.6088938117027283,
	 0.4012676179409027,   0.026346851140260696, 0.050995491445064545,
	 -0.18345597386360168, 0.4642123579978943,   -0.17981532216072083,
	 0.1132654920220375,   0.05124310776591301,  0.33275195956230164,
	 -0.35270220041275024, -0.14824306964874268, 0.6146000623703003},
	{1.619167685508728,	0.4002712070941925,   -0.2661048173904419,
	 0.27377083897590637,  0.4098297655582428,   0.24428324401378632,
	 -0.458950400352478,   -0.12492545694112778, -0.03918224945664406,
	 0.4894469380378723,   -0.5748440027236938,  -0.8500698208808899,
	 0.32546815276145935,  0.20072518289089203,  0.2258155643939972,
	 -0.26535463333129883, -0.2554115355014801,  0.4503209888935089,
	 0.5305478572845459,   0.3052171468734741,   0.7169700860977173,
	 -0.5236059427261353,  -1.3364017009735107,  0.2801849842071533},
	{1.094815969467163,	0.1551239937543869,   -1.9182289838790894,
	 -1.569266438484192,   -0.6327545046806335,  -0.9941483736038208,
	 -0.01305049192160368, 0.37790676951408386,  -0.4960535168647766,
	 0.784750759601593,	0.39748895168304443,  0.3557186424732208,
	 0.13733084499835968,  -0.0750076174736023,  -0.7819980978965759,
	 0.014239667914807796, -0.6541489362716675,  0.15892423689365387,
	 0.09765094518661499,  0.13728056848049164,  0.7687152028083801,
	 0.1159110963344574,   -0.18299253284931183, -0.37098386883735657},
	{-1.380105972290039,   0.10012935101985931, 0.022823108360171318,
	 -0.11167789250612259, 0.5539736747741699,  0.5376033782958984,
	 0.7297480702400208,   0.2505280673503876,  -0.34316331148147583,
	 0.8568640947341919,   0.4421420097351074,  -0.09813039004802704,
	 0.17549991607666016,  0.09169834107160568, 0.05923908203840256,
	 -0.9782416224479675,  0.13309963047504425, 0.33828920125961304,
	 0.5564395785331726,   0.5786439180374146,  0.7848688960075378,
	 -0.31629711389541626, -2.3517584800720215, -0.13238008320331573},
	{0.05610877647995949,  0.02623678557574749,  0.06218502297997475,
	 -0.18115797638893127, 0.17324063181877136,  0.1760084331035614,
	 -0.09193810820579529, 0.0556628480553627,   0.12932749092578888,
	 0.330561101436615,	0.006337705533951521, 0.2636549472808838,
	 0.3868638277053833,   0.2029116451740265,   0.50631183385849,
	 0.5782361626625061,   0.4422127604484558,   -1.041700839996338,
	 -2.4490177631378174,  0.5557830333709717,   -0.19546984136104584,
	 -0.599850058555603,   -0.46913212537765503, 0.1017446368932724},
	{-0.2706153094768524,  -2.9671108722686768,  -0.4776008129119873,
	 -0.08057129383087158, 0.2548426389694214,   -0.18862660229206085,
	 -0.48330140113830566, -0.22505579888820648, -0.18757522106170654,
	 0.11770687252283096,  0.6402981281280518,   0.7753703594207764,
	 0.2284288853406906,   -0.10445895045995712, -0.6481741070747375,
	 -0.8148959279060364,  -0.09349234402179718, -0.2968786954879761,
	 0.37508729100227356,  0.2179570198059082,   0.23394052684307098,
	 -0.4695504307746887,  -0.22289663553237915, 0.3948438763618469},
	{-0.16292771697044373, -0.011034226976335049, 0.36716604232788086,
	 0.8636730313301086,   0.1270044595003128,	-0.33183062076568604,
	 0.758916974067688,	0.933660626411438,	 0.048774413764476776,
	 -0.897463858127594,   0.13158370554447174,   0.5157281160354614,
	 0.40113160014152527,  0.05734232813119888,   -0.07805057615041733,
	 0.6974050402641296,   0.9926490783691406,	0.4192478060722351,
	 -0.17138874530792236, 0.603233814239502,	 0.2617131471633911,
	 0.6598783731460571,   0.6311420798301697,	0.4060295820236206},
	{0.10135575383901596,   0.07073807716369629, 0.005971658043563366,
	 -0.20050503313541412,  0.08382093161344528, -1.1476613283157349,
	 -0.36964327096939087,  0.5051777362823486,  -1.1149296760559082,
	 -0.010530625469982624, 0.5460617542266846,  0.2918742299079895,
	 -0.04073110595345497,  0.2822800874710083,  0.7189133167266846,
	 -1.7139543294906616,   0.1209152340888977,  0.30876871943473816,
	 -0.03112603724002838,  0.09534197300672531, -0.1313735395669937,
	 0.9905900359153748,	0.6246206760406494,  -0.21912534534931183},
	{0.5573580265045166,   0.5066052675247192,  0.019663572311401367,
	 -0.1306077390909195,  0.4350651502609253,  0.5008586645126343,
	 -0.17223221063613892, -0.5376834273338318, 0.6931964755058289,
	 -2.4626576900482178,  0.09595085680484772, 0.17542965710163116,
	 -0.06795074045658112, 0.3028825521469116,  -0.1203722432255745,
	 -0.24920471012592316, -0.8805478811264038, -0.016381781548261642,
	 0.975135326385498,	0.670099675655365,   0.9462780356407166,
	 -0.12745872139930725, -1.7367784976959229, -0.09830009192228317},
	{-0.5509516596794128,   0.20435580611228943, 0.2885873019695282,
	 0.6209610104560852,	0.01092537585645914, 0.10413451492786407,
	 -0.050757452845573425, -0.1894821971654892, -0.08411280065774918,
	 -0.20026439428329468,  0.4855632781982422,  0.1600937843322754,
	 -0.9050024747848511,   0.138279989361763,   -1.0726723670959473,
	 -0.832330048084259,	0.9581992030143738,  -0.21352331340312958,
	 -0.27279189229011536,  0.36237236857414246, 0.046516302973032,
	 0.45340415835380554,   0.47459882497787476, 0.6608545780181885},
	{0.6069584488868713,   -0.6740244030952454,  -0.605697751045227,
	 0.26079022884368896,  0.27053192257881165,  -1.4173133373260498,
	 -1.0991151332855225,  0.33494868874549866,  0.1703067421913147,
	 0.1674315482378006,   0.2997294068336487,   0.1390003263950348,
	 0.4484979212284088,   -0.09818954020738602, -0.2798573672771454,
	 -0.46361836791038513, 0.27355411648750305,  -0.22352606058120728,
	 -0.392924964427948,   -0.08122249692678452, 0.15973535180091858,
	 0.1116497665643692,   0.04619287699460983,  0.22035212814807892},
	{0.1708502471446991,  -0.01904820278286934, -0.24029263854026794,
	 1.6927437782287598,  -0.9030171036720276,  0.3904374837875366,
	 -0.1708073616027832, 0.054373446851968765, -0.33167144656181335,
	 0.06808168441057205, 0.7409790754318237,   0.24408984184265137,
	 0.29678452014923096, 0.46090710163116455,  0.07154606282711029,
	 -0.065828338265419,  0.3312937319278717,   -0.25515979528427124,
	 0.06235302612185478, 0.17310106754302979,  -0.1728546917438507,
	 0.18932616710662842, -0.20852230489253998, -0.044379934668540955},
	{-0.3143036663532257,  0.0124685512855649,   0.4780516028404236,
	 0.6922799944877625,   -0.04217441752552986, 0.024230917915701866,
	 0.27608832716941833,  0.7141851186752319,   0.05964852496981621,
	 0.2386183887720108,   0.3118749260902405,   0.04534461349248886,
	 -0.13304492831230164, 0.0400509238243103,   0.9690197110176086,
	 0.5814723968505859,   -2.289618730545044,   -0.6767506003379822,
	 0.4597705006599426,   -0.02112480252981186, 0.22419199347496033,
	 0.6391198635101318,   0.3081503212451935,   -0.5045621395111084},
	{-0.12776784598827362, 0.012857252731919289,  0.3081437051296234,
	 -0.138770192861557,   0.20301410555839539,   0.14680583775043488,
	 0.042533066123723984, -0.043762240558862686, -0.15724606812000275,
	 -0.10457544028759003, 0.05674838274717331,   -0.04724790155887604,
	 0.3998049199581146,   0.0728452131152153,	0.21123792231082916,
	 0.4358519911766052,   -0.11269351840019226,  0.20105469226837158,
	 -1.77243173122406,	-0.6981779336929321,   0.40909072756767273,
	 -0.820797860622406,   -0.4203476905822754,   0.056866154074668884},
	{0.4191158711910248,	0.24978964030742645,  0.1283157914876938,
	 -0.7659701704978943,   0.1708059012889862,   0.5703112483024597,
	 -0.030577968806028366, -0.20320124924182892, -3.5960006713867188,
	 0.040994204580783844,  0.30503085255622864,  0.17023949325084686,
	 0.13378822803497314,   0.1771288961172104,   0.8431012034416199,
	 -0.19283926486968994,  -0.26016661524772644, 0.11265759915113449,
	 0.6086805462837219,	0.49523913860321045,  0.4896244406700134,
	 -0.344083696603775,	0.4216308891773224,   -0.06216546520590782},
	{0.5626141428947449,   0.26388290524482727,		0.21595405042171478,
	 -0.5865481495857239,  0.20240932703018188,		-0.16840843856334686,
	 0.11055000126361847,  -0.41896697878837585,	0.008088771253824234,
	 0.5032142996788025,   -0.00020736281294375658, 0.12943589687347412,
	 0.025351248681545258, 0.24866877496242523,		0.5959431529045105,
	 0.6826897859573364,   -0.23168496787548065,	0.15771567821502686,
	 0.5154950022697449,   0.678540825843811,		0.5238203406333923,
	 0.5047394037246704,   -0.5304973125457764,		-2.7853527069091797},
	{0.23988549411296844,	0.23939715325832367,  0.39642763137817383,
	 0.6352259516716003,	 0.13342513144016266,  0.6974456906318665,
	 0.0879504382610321,	 -0.31062614917755127, 0.06783842295408249,
	 0.026797426864504814,   0.03956713527441025,  -0.18138492107391357,
	 -0.0062806871719658375, 0.17021624743938446,  -0.33743834495544434,
	 -0.977288007736206,	 -0.47020503878593445, 0.5328673720359802,
	 0.8460381627082825,	 0.40651097893714905,  -0.9351733326911926,
	 -0.8393270373344421,	-0.7483230829238892,  0.5042553544044495},
	{-0.5300992727279663,  0.2021659016609192,	0.18763194978237152,
	 -0.29189345240592957, -0.09705691039562225,  0.38790321350097656,
	 -1.15488600730896,	0.0029240299481898546, -1.3067502975463867,
	 0.2431769073009491,   0.34466028213500977,   0.08091308921575546,
	 0.25664952397346497,  -0.17200082540512085,  0.6919662356376648,
	 -0.6528019905090332,  0.20692427456378937,   0.06633751094341278,
	 -0.18165336549282074, -0.28297945857048035,  -0.4821690320968628,
	 -0.15519100427627563, 1.278754472732544,	 -0.44731107354164124},
	{0.09145928919315338,  0.34040403366088867,   0.014412233605980873,
	 -0.14224295318126678, -0.11490732431411743,  0.7829180955886841,
	 0.5134053230285645,   0.5992923378944397,	0.12438901513814926,
	 -0.08743990957736969, 0.2925584316253662,	0.25591665506362915,
	 0.5199530720710754,   -0.053910136222839355, 0.603545069694519,
	 -2.446511745452881,   0.6221935153007507,	0.21318365633487701,
	 -0.40723857283592224, -0.004064564593136311, 0.027885034680366516,
	 0.45787012577056885,  0.8204293847084045,	-0.48222222924232483},
	{0.7841788530349731,   -0.07502946257591248, -0.2781505584716797,
	 1.2669669389724731,   0.36312147974967957,  -0.10402877628803253,
	 0.7715222239494324,   -0.8516974449157715,  -0.3122245967388153,
	 -0.6599543690681458,  -0.08480599522590637, -0.0077163041569292545,
	 -0.40222468972206116, 0.3731406331062317,   0.03952381759881973,
	 -0.6146537065505981,  -0.19581159949302673, 0.11159425228834152,
	 0.32658442854881287,  -0.38776764273643494, -0.024141455069184303,
	 -0.813510537147522,   -1.028870701789856,   -0.3255636394023895},
	{-0.01654921844601631, 0.13123856484889984,  0.16954346001148224,
	 0.09526538848876953,  0.30402830243110657,  0.015431604348123074,
	 -0.085525743663311,   0.03639435023069382,  0.3267572224140167,
	 0.17186087369918823,  0.14252470433712006,  0.07579062134027481,
	 0.15555931627750397,  0.034909553825855255, 0.6776171326637268,
	 1.0139856338500977,   -0.08470156043767929, -1.271567463874817,
	 -0.32409733533859253, 0.39206942915916443,  0.350222647190094,
	 0.15039293467998505,  -2.04628324508667,	-0.4974213242530823},
	{-0.197163388133049,  0.46832340955734253, -0.7198410034179688,
	 -0.9120749235153198, -2.4443180561065674, -1.298848032951355,
	 0.3460182547569275,  0.29077303409576416, 0.13699860870838165,
	 0.07617256790399551, 0.04772856459021568, 0.038674212992191315,
	 0.07948793470859528, -0.1832263320684433, -0.7005256414413452,
	 0.3610258996486664,  0.0165081974118948,  -0.0847281664609909,
	 -0.3627987205982208, 0.6938278079032898,  0.3531569540500641,
	 0.02349485643208027, 0.20302414894104004, 0.27653416991233826},
	{-0.2440296858549118, 0.34091517329216003,  0.38236773014068604,
	 0.8039737343788147,  -0.06167735904455185, 0.17492379248142242,
	 0.2102544903755188,  -0.01950261928141117, 0.26230260729789734,
	 0.11792325973510742, 0.12363917380571365,  0.144477978348732,
	 -1.5102566480636597, -0.02875434048473835, 0.525108277797699,
	 0.5720627903938293,  0.6079492568969727,   -0.6767404079437256,
	 0.685173749923706,   0.23852750658988953,  -0.13883407413959503,
	 -0.3964283764362335, 0.3232424855232239,   0.009528749622404575},
	{-0.318574458360672,   -0.03971988707780838, -0.5280755162239075,
	 -0.927209734916687,   0.05354464426636696,  -0.8441762924194336,
	 -0.25798752903938293, -0.17980612814426422, 0.0354711152613163,
	 -0.3275949954986572,  -0.4904201328754425,  -0.2917921841144562,
	 0.08786401152610779,  -0.37309086322784424, -0.15542428195476532,
	 0.3998958468437195,   -0.17943769693374634, 0.07408291101455688,
	 -0.1951679289340973,  -0.19647493958473206, -0.6591616868972778,
	 -0.3579212427139282,  0.02940608561038971,  -0.16281519830226898},
	{0.019417986273765564, -1.072754979133606,   0.42392924427986145,
	 0.6824749708175659,   0.2367112636566162,   0.17424406111240387,
	 0.41876527667045593,  -0.6428461670875549,  -0.10883079469203949,
	 0.0292702317237854,   0.07179204374551773,  0.01649065688252449,
	 -0.3760734796524048,  -0.10252345353364944, 0.16557714343070984,
	 -0.8943684697151184,  0.1848398596048355,   0.15958203375339508,
	 0.08711116015911102,  0.17943167686462402,  0.5625287890434265,
	 -0.40907421708106995, -1.0952420234680176,  -0.166350319981575},
	{-0.02822887897491455, -0.4452853500843048,   -0.31505098938941956,
	 1.80046808719635,	 0.23018521070480347,   -0.5981118679046631,
	 -2.1578118801116943,  -0.06837502866983414,  0.07006391882896423,
	 0.7373939752578735,   0.6201149821281433,	0.47416242957115173,
	 0.2697376608848572,   -0.021668504923582077, -0.1839068979024887,
	 -0.05308036878705025, -0.576218843460083,	0.027657197788357735,
	 -0.3665107786655426,  0.09644311666488647,   -0.08691506832838058,
	 0.2715325355529785,   -0.24947194755077362,  -0.44623807072639465},
	{-0.010928843170404434, 0.27284252643585205,   0.1511046439409256,
	 0.732608437538147,		0.3388855755329132,	0.15739339590072632,
	 -0.121701180934906,	-0.029208432883024216, 0.3298618495464325,
	 0.23072665929794312,   -1.078198790550232,	-0.5911756157875061,
	 -0.09657490253448486,  -0.13583232462406158,  0.10710819810628891,
	 -0.07588271796703339,  -0.002328145317733288, 0.12130728363990784,
	 -0.025865431874990463, -0.13224761188030243,  0.02304588258266449,
	 -0.05998046696186066,  -0.4169714152812958,   0.15001672506332397},
	{-0.29095402359962463, -0.2532099187374115,  0.3433763086795807,
	 -0.3847571611404419,  -0.2774631381034851,  -0.13066403567790985,
	 -0.6704919338226318,  0.3619331121444702,   1.2503461837768555,
	 -0.9858413934707642,  -1.5824682712554932,  0.3091944754123688,
	 0.2515522241592407,   -0.2292172908782959,  0.49682605266571045,
	 1.0545693635940552,   -0.03731872886419296, 0.37274304032325745,
	 -0.20169943571090698, -0.16424722969532013, 0.038587260991334915,
	 -0.06589516252279282, 0.6461429595947266,   0.4782368838787079},
	{-0.982446551322937,   -0.1699766218662262,  -0.1267167180776596,
	 -0.08542890846729279, -0.11933877319097519, 0.13582096993923187,
	 -0.16975073516368866, -2.0161919593811035,  0.5183412432670593,
	 0.6564420461654663,   0.7997941970825195,   -0.8118871450424194,
	 -0.38816413283348083, -0.09620483964681625, -0.29925858974456787,
	 -0.1539582908153534,  0.23278707265853882,  0.26088064908981323,
	 -0.1851651519536972,  -0.5447989702224731,  0.7092131972312927,
	 0.41383978724479675,  0.18726606667041779,  -0.07513677328824997},
	{0.14807069301605225,  0.38786792755126953,  0.21228176355361938,
	 -0.6246027946472168,  -0.3992327153682709,  0.22134217619895935,
	 0.9914829730987549,   -1.9789226055145264,  -0.06461707502603531,
	 0.28746262192726135,  -0.1850932091474533,  0.16256046295166016,
	 -0.20025719702243805, 0.29007527232170105,  -0.24857904016971588,
	 0.10153907537460327,  0.5952966213226318,   0.16936808824539185,
	 0.3072001039981842,   -0.49177250266075134, -0.2864731550216675,
	 0.06850231438875198,  0.362566202878952,	0.03515883907675743},
	{0.45119982957839966,  0.26776590943336487,   -0.365886390209198,
	 -1.094682216644287,   -0.3864414095878601,   0.3627309799194336,
	 0.6019478440284729,   0.5972802042961121,	-0.1167483925819397,
	 -0.6421065330505371,  -0.7393674254417419,   -0.10507840663194656,
	 0.21850775182247162,  -0.051055826246738434, -0.18331867456436157,
	 -0.24161095917224884, 0.6994960308074951,	0.626707911491394,
	 -0.2184070348739624,  -0.40000998973846436,  -0.4914467930793762,
	 0.22781585156917572,  0.617796003818512,	 0.3053910732269287},
	{0.5538763403892517,   -0.6610731482505798,  -2.932800054550171,
	 0.2277454286813736,   -0.09021313488483429, -0.9601374268531799,
	 -0.2663123607635498,  0.08598248660564423,  0.40129223465919495,
	 0.05166543647646904,  0.34891408681869507,  0.28531917929649353,
	 0.10794318467378616,  -0.14560848474502563, -0.7633638978004456,
	 -0.4344160854816437,  -0.09126078337430954, 0.29785335063934326,
	 0.37282827496528625,  0.27600014209747314,  0.3465288579463959,
	 -0.23345205187797546, -0.6256641745567322,  0.15385447442531586},
	{0.5385671854019165,   0.38431316614151,	 0.17526915669441223,
	 -1.7661869525909424,  -2.013383150100708,   -0.22936156392097473,
	 0.38382965326309204,  0.06561559438705444,  0.13103388249874115,
	 0.049805182963609695, 0.29549601674079895,  0.26460808515548706,
	 0.07670185714960098,  0.0831369087100029,   -0.41957202553749084,
	 0.23794066905975342,  -0.02056973986327648, 0.23348894715309143,
	 0.30937960743904114,  -0.797500491142273,   -0.9645907282829285,
	 0.2926783263683319,   0.034302227199077606, -0.3480979800224304},
	{0.9404198527336121,   0.44809094071388245,  0.7278055548667908,
	 -1.4791103601455688,  -0.08671549707651138, 0.11173050105571747,
	 0.7646359205245972,   -0.0288589745759964,  0.0002858698717318475,
	 0.260223925113678,	-0.06748074293136597, 0.27786439657211304,
	 0.034784670919179916, 0.2918665409088135,   -0.49340084195137024,
	 0.13791517913341522,  -0.074568010866642,   -0.05787109211087227,
	 0.7095544338226318,   -0.04581122472882271, -1.965588092803955,
	 0.8484822511672974,   -1.3496716022491455,  -0.3543053865432739},
	{-0.14998231828212738, -0.06281110644340515, 0.2724636197090149,
	 0.40234529972076416,  0.012613711878657341, 0.3987954556941986,
	 0.47556227445602417,  0.4762808680534363,   0.007903827354311943,
	 0.17675600945949554,  0.32066524028778076,  0.18555757403373718,
	 0.05124558135867119,  0.35803020000457764,  0.5517464876174927,
	 0.5193341374397278,   0.41158950328826904,  -2.4421770572662354,
	 -0.06048500910401344, 0.35118958353996277,  0.21109919250011444,
	 0.3247988522052765,   0.22212862968444824,  -0.20339149236679077},
	{-0.2420354187488556, -0.126438170671463,   -0.3687627613544464,
	 1.0883681774139404,  -0.507160484790802,   -0.16864897310733795,
	 1.2881367206573486,  -0.4045350253582001,  0.20185203850269318,
	 -0.7091296315193176, 0.012501531280577183, -0.7370977997779846,
	 -0.1126217320561409, 0.14601047337055206,  -0.2703239917755127,
	 -0.6763979196548462, 0.3449835479259491,   -0.31998634338378906,
	 0.4074602425098419,  -1.598934531211853,   0.014641834422945976,
	 -0.6933977603912354, -0.31712573766708374, -0.4580308198928833},
	{-0.8384215235710144,  0.5776888728141785,   0.4680342376232147,
	 -0.379643976688385,   -0.05919470265507698, 0.2603866159915924,
	 0.21279208362102509,  0.5568179488182068,   0.42347121238708496,
	 1.0128991603851318,   -0.6934269666671753,  -0.7645031213760376,
	 -1.9376353025436401,  -0.3548879623413086,  0.36069825291633606,
	 1.2657802104949951,   0.567631721496582,	0.24160534143447876,
	 -0.22152043879032135, -0.6360982656478882,  0.19114281237125397,
	 0.12458179891109467,  0.696679413318634,	0.07041065394878387},
	{0.41695597767829895, -0.17180129885673523,  -0.48555660247802734,
	 0.3968021869659424,  -0.39214277267456055,  -2.6388397216796875,
	 0.2589491307735443,  0.5746139883995056,	0.26331982016563416,
	 0.1111907884478569,  -0.0352289117872715,   0.3087887167930603,
	 0.13419553637504578, -0.013138188980519772, -0.5305454730987549,
	 0.6022281646728516,  0.14312973618507385,   -0.08157238364219666,
	 0.23044747114181519, -0.11141982674598694,  0.15865761041641235,
	 0.09479662775993347, 0.16301585733890533,   -0.15839996933937073},
	{0.8351265788078308,	0.39583659172058105,   -0.2837451696395874,
	 -2.0898802280426025,   -0.19073915481567383,  0.2163202166557312,
	 0.5596480369567871,	-0.029122306033968925, -0.5356881022453308,
	 -0.7868480086326599,   0.13296101987361908,   0.5950703620910645,
	 -0.026828549802303314, 0.03386037051677704,   0.4215591847896576,
	 0.039736103266477585,  -0.8380898833274841,   0.3470100462436676,
	 1.0023717880249023,	0.2492620199918747,	-0.0043201264925301075,
	 -0.09816338121891022,  -0.5233513116836548,   0.9414386749267578},
	{0.6146272420883179,   0.016828134655952454, -0.1431548148393631,
	 1.0390084981918335,   0.41544046998023987,  0.42692801356315613,
	 0.5607606172561646,   -0.2747773826122284,  -0.4151779115200043,
	 0.4192367494106293,   0.08148858696222305,  -0.512140691280365,
	 0.09630420058965683,  -0.18676719069480896, -0.12950392067432404,
	 -0.06681468337774277, 0.10183144360780716,  0.15714982151985168,
	 0.25410571694374084,  0.7269718647003174,   0.10647664964199066,
	 -0.8844161033630371,  0.2514895796775818,   -1.006134033203125},
	{0.26247379183769226, 0.17448696494102478,   0.22359676659107208,
	 -0.2651253044605255, 0.4606364369392395,	0.4232307970523834,
	 0.13172048330307007, -0.024222934618592262, 0.25127241015434265,
	 0.26460587978363037, 0.08961263298988342,   0.30541136860847473,
	 0.24441121518611908, -0.029187113046646118, 0.1094951182603836,
	 0.2976645827293396,  -0.1084061786532402,   0.41747185587882996,
	 -0.8609601259231567, -0.677699625492096,	-2.1092705726623535,
	 -1.0217119455337524, 0.4782423675060272,	0.32850030064582825},
	{0.45549026131629944,  -0.18522469699382782,  -0.048259127885103226,
	 -2.90401291847229,	-0.11984582245349884,  -0.10654453933238983,
	 1.0129806995391846,   -0.22404532134532928,  -0.5986047983169556,
	 -0.22250589728355408, 0.21864044666290283,   -0.4654719829559326,
	 -0.2103537917137146,  -0.037422407418489456, 0.11558643728494644,
	 -0.3948041796684265,  -0.2033497840166092,   -0.04591023549437523,
	 0.15875619649887085,  -0.002844417467713356, 0.6323871612548828,
	 -0.7912823557853699,  -1.06745183467865,	 0.07327830046415329},
	{0.7998760938644409,   0.057825736701488495, -0.07803494483232498,
	 -1.1496511697769165,  -0.1400112360715866,  0.3576624393463135,
	 0.06533832848072052,  0.23137953877449036,  0.37544092535972595,
	 0.5001763105392456,   -2.477404832839966,   -0.36597657203674316,
	 -0.12244555354118347, 0.026949170976877213, -0.05204259976744652,
	 -0.02783411182463169, -0.29103997349739075, -0.0031785841565579176,
	 0.6124326586723328,   0.04573172330856323,  0.13859404623508453,
	 -0.134500190615654,   -0.05468151718378067, 0.40452951192855835},
	{-0.2410663515329361,   0.533092200756073,	0.1868593841791153,
	 -0.8159231543540955,   -0.00870069395750761, 0.10133130848407745,
	 0.23649747669696808,   -0.27856314182281494, 0.46413812041282654,
	 0.9616468548774719,	0.38678425550460815,  -3.2405571937561035,
	 -0.10669015347957611,  0.021164681762456894, -0.30106785893440247,
	 -0.42986181378364563,  0.15819796919822693,  0.08809380978345871,
	 0.807155191898346,		0.5084758996963501,   0.354049950838089,
	 -0.054529741406440735, -0.6870635747909546,  0.6631295680999756},
	{-0.08651077002286911, 0.43665289878845215,  -0.18227344751358032,
	 0.37593886256217957,  0.30035045742988586,  0.4439927041530609,
	 -0.2015243023633957,  -0.20320460200309753, -0.08950947970151901,
	 -0.20619714260101318, -1.939224123954773,   0.9768210053443909,
	 -0.08919669687747955, 0.16790218651294708,  0.08384118974208832,
	 -0.609123706817627,   -0.1893601417541504,  0.09715591371059418,
	 0.9585932493209839,   0.632698655128479,	0.8249415755271912,
	 -0.49134618043899536, -0.6904597878456116,  -0.5953767895698547},
	{0.8702897429466248,   -0.7100465893745422,  -0.9689319133758545,
	 -0.7102424502372742,  0.2637982666492462,   0.04556123912334442,
	 -0.3090488910675049,  0.01939891092479229,  0.46458110213279724,
	 0.46275120973587036,  -0.45092207193374634, -0.5492261648178101,
	 0.0454714372754097,   -0.2570629119873047,  -0.2995883524417877,
	 -0.25914978981018066, -0.5470359921455383,  0.32681265473365784,
	 0.1696166694164276,   0.26610496640205383,  -0.00110864476300776,
	 -0.47738128900527954, 0.6951667666435242,   0.5301012396812439},
	{0.8645563721656799,  -0.35793352127075195, -0.034129250794649124,
	 -0.2424740195274353, 0.14380723237991333,  0.10267471522092819,
	 0.38163575530052185, -0.3572366535663605,  0.18264445662498474,
	 0.3490459620952606,  -0.10360628366470337, 0.3878153860569,
	 0.32254931330680847, 0.397172749042511,	0.5605478882789612,
	 0.03994346037507057, -0.1422625482082367,  0.305514395236969,
	 0.6745071411132812,  0.2575318515300751,   -0.22022902965545654,
	 -2.59966778755188,   -0.6749340295791626,  -0.09445767849683762},
	{0.10385045409202576,  0.1368977427482605,   -0.032221026718616486,
	 0.9855992794036865,   -0.6083784699440002,  0.24814218282699585,
	 1.039354920387268,	0.1906205415725708,   0.22923220694065094,
	 -0.07773040980100632, 0.2723657786846161,   0.10154271125793457,
	 -0.28427422046661377, 0.2324439436197281,   0.5188385844230652,
	 -0.764062762260437,   -1.182440161705017,   0.20855912566184998,
	 -0.5837423801422119,  -0.32442179322242737, -0.011086057871580124,
	 0.14063572883605957,  -0.02148767188191414, 0.2235185205936432},
	{0.09805679321289062,  -0.23701222240924835, -0.27567416429519653,
	 -0.3152940273284912,  0.43419188261032104,  -0.33083832263946533,
	 -0.44628602266311646, 0.16445164382457733,  -1.0057353973388672,
	 -3.000455617904663,   0.16237695515155792,  0.30198198556900024,
	 0.4394809603691101,   -0.07915444672107697, 1.113801121711731,
	 -0.19943656027317047, -0.156783789396286,   0.3813917934894562,
	 0.09559249877929688,  0.5113341212272644,   0.0017280617030337453,
	 -0.15165135264396667, 0.42451947927474976,  0.8347440361976624},
	{0.05317096784710884, 0.5252487659454346,	0.04632677137851715,
	 1.181409239768982,   -0.3488113582134247,   0.7692191004753113,
	 0.8732523322105408,  1.1675710678100586,	0.5378862619400024,
	 0.2888915240764618,  -0.6738616228103638,   -0.025061706081032753,
	 0.2571282982826233,  -0.011194856837391853, 0.04331392049789429,
	 1.9629343748092651,  0.04782455414533615,   0.32801276445388794,
	 0.3531411290168762,  -0.8690426349639893,   -0.6426905989646912,
	 0.2048775851726532,  0.5227687954902649,	0.5619763135910034},
	{0.04389328882098198, -0.46326717734336853, 0.16356360912322998,
	 -2.8379955291748047, 0.162401482462883,	0.6368193626403809,
	 -0.1192275807261467, 0.03819943219423294,  0.04753323644399643,
	 0.29505783319473267, 0.10157790035009384,  0.18293285369873047,
	 0.3995547294616699,  0.1383657306432724,   -0.15996438264846802,
	 -0.4127979278564453, -0.09717060625553131, 0.20926350355148315,
	 0.26278501749038696, 0.7485293745994568,   0.4019123315811157,
	 -0.3716312646865845, 0.013465414755046368, 0.11147474497556686},
	{-0.7023648619651794,  0.36082813143730164,  0.5578801035881042,
	 -1.5833508968353271,  0.053349439054727554, 0.2682472765445709,
	 -0.6600556969642639,  -0.1174856647849083,  0.6980510950088501,
	 0.38842636346817017,  0.12598417699337006,  -0.5916876196861267,
	 -0.41716572642326355, -0.34984567761421204, 0.0857192873954773,
	 0.6209149956703186,   0.22649043798446655,  0.21684472262859344,
	 -0.26930931210517883, -0.599137008190155,   -0.37072664499282837,
	 -0.2635268568992615,  0.8342193365097046,   0.3773749768733978}};
// mat_mul_first(w1_t[64][24], in[24][1], r1[64][1]);

float b1[64][1] = {
	{-1.4312543869018555}, {-1.9019318819046021}, {-1.4224724769592285},
	{-0.6394361853599548}, {-2.5255799293518066}, {-2.8273401260375977},
	{-2.0860474109649658}, {-0.5223189592361450}, {-0.6009093523025513},
	{-1.2988758087158203}, {-1.6502515077590942}, {-0.4083354175090790},
	{-1.8600044250488281}, {-2.0831222534179688}, {-2.0890591144561768},
	{-1.9990396499633789}, {-2.5443825721740723}, {-2.4600942134857178},
	{-0.8464645147323608}, {-1.4812201261520386}, {-2.9266228675842285},
	{-1.8676254749298096}, {-1.7251557111740112}, {-0.9149922132492065},
	{-2.8964660167694092}, {-1.8091423511505127}, {-3.3294129371643066},
	{-3.0175065994262695}, {-1.2104682922363281}, {-1.1688389778137207},
	{-2.7934007644653320}, {-1.8852497339248657}, {-1.5636146068572998},
	{-2.5232882499694824}, {-2.3379924297332764}, {0.2966118454933167},
	{-2.2322635650634766}, {-1.5070071220397949}, {-0.3072686791419983},
	{-2.0074527263641357}, {-0.7768844962120056}, {-2.0713052749633789},
	{-0.2518439590930939}, {-3.0096209049224854}, {-2.2058556079864502},
	{-2.5284585952758789}, {-3.3646881580352783}, {-3.3021860122680664},
	{-0.5618194937705994}, {-2.6899318695068359}, {-2.1259288787841797},
	{-1.7034500837326050}, {-1.8940509557723999}, {-2.3434653282165527},
	{-1.3568630218505859}, {-3.1129024028778076}, {-2.5605552196502686},
	{-1.8700268268585205}, {-2.2570378780364990}, {-1.9863308668136597},
	{-1.6827281713485718}, {-0.2138711959123611}, {-0.6938908696174622},
	{-1.5751187801361084}};

float r1[64][1];

float w2[64][64] = {
	{-0.4885764718055725,  -0.15686367452144623,  -0.27562466263771057,
	 0.9000452756881714,   -0.04047040641307831,  0.3803331255912781,
	 -0.7605804204940796,  -0.6830962896347046,   -0.07164622098207474,
	 0.5140253305435181,   0.38497206568717957,   -0.22648562490940094,
	 -0.15950177609920502, -0.8953372240066528,   0.4779829978942871,
	 -0.15666599571704865, -0.034951139241456985, -0.4352268874645233,
	 -0.08003953099250793, -0.15391725301742554,  -0.8228700757026672,
	 0.22293666005134583,  0.12453886866569519,   -2.4548873901367188,
	 -0.864439070224762,   0.19982925057411194,   -0.6164988279342651,
	 -0.6203625202178955,  -0.8258094191551208,   0.1372750848531723,
	 -0.12113314867019653, -0.9213258028030396,   -0.680076003074646,
	 0.11067774891853333,  0.0873558297753334,	0.7249380350112915,
	 -0.40918081998825073, -1.107812523841858,	0.17296887934207916,
	 -0.22598795592784882, -0.48298805952072144,  -0.12278786301612854,
	 0.3431488573551178,   -0.663970947265625,	0.49878236651420593,
	 -0.6705514788627625,  -0.5916309356689453,   -1.3915858268737793,
	 -0.35973721742630005, -0.5465794205665588,   0.012856872752308846,
	 0.016904426738619804, -1.1927281618118286,   -0.17587910592556,
	 -0.13376708328723907, -0.010146867483854294, -1.1007038354873657,
	 -0.042730912566185,   0.11311163753271103,   -1.3869059085845947,
	 0.49314579367637634,  0.014676570892333984,  -0.13823097944259644,
	 0.29649123549461365},
	{-0.012821407988667488, 0.21882997453212738,  -0.5464048385620117,
	 -0.5334224700927734,   -0.28976956009864807, -0.539230227470398,
	 0.9506203532218933,	0.25282448530197144,  -0.5977106094360352,
	 0.07321767508983612,   -0.5837663412094116,  -0.4470178186893463,
	 -0.6053611636161804,   -0.8433263301849365,  -1.1852128505706787,
	 -1.6701020002365112,   -0.5519347786903381,  -0.6026431918144226,
	 -0.21421459317207336,  -0.43937626481056213, -0.8416155576705933,
	 0.26401519775390625,   -0.7590532898902893,  -0.5784697532653809,
	 -0.42177116870880127,  -0.4716694951057434,  -0.21197916567325592,
	 -0.5924472212791443,   -0.8450786471366882,  -0.33054447174072266,
	 -0.536804735660553,	0.04747220128774643,  -0.7511183619499207,
	 -0.24475695192813873,  0.8671603202819824,   -0.48845523595809937,
	 -0.06941935420036316,  -0.4640873074531555,  -0.02398020215332508,
	 -0.5957286953926086,   1.1964352130889893,   0.7918066382408142,
	 -0.8634754419326782,   -0.5856399536132812,  -0.9858472347259521,
	 0.24953173100948334,   -1.0264443159103394,  -0.8576462268829346,
	 0.4984659254550934,	-0.36893612146377563, -0.30263176560401917,
	 -0.7124669551849365,   -0.618594229221344,   -0.22699132561683655,
	 -0.04306415468454361,  -1.0669749975204468,  -0.32768547534942627,
	 -0.3197925388813019,   -0.4018224775791168,  -0.5413097739219666,
	 -0.19365382194519043,  -0.7618308067321777,  -1.3340508937835693,
	 0.02281283214688301},
	{-0.43898290395736694,  -0.4621090292930603,  0.17423221468925476,
	 -0.27619603276252747,  -0.20404410362243652, -0.6667888164520264,
	 0.016298621892929077,  -0.6506917476654053,  -0.11663002520799637,
	 -1.1724114418029785,   -0.20075543224811554, -0.08890491724014282,
	 -0.39562004804611206,  -0.46514183282852173, -0.4013650417327881,
	 -0.11871545016765594,  -0.45829951763153076, -0.09898043423891068,
	 -0.06317000091075897,  0.4950031638145447,   -0.20542225241661072,
	 0.07347472012042999,   0.005998102016746998, -0.18173015117645264,
	 -0.11916476488113403,  -0.7312549352645874,  -0.5452908277511597,
	 -0.8254927396774292,   -0.06528730690479279, 0.5503456592559814,
	 0.9352542757987976,	-0.5576975345611572,  -0.47896039485931396,
	 0.14628852903842926,   -0.602051317691803,   -0.006879658903926611,
	 0.06126111000776291,   -0.13454483449459076, -0.2235768437385559,
	 -0.29910334944725037,  -0.47598299384117126, 0.2609896659851074,
	 0.06165672093629837,   -0.7352898120880127,  -0.2943691313266754,
	 -0.026515522971749306, -0.3647572696208954,  -0.17612355947494507,
	 -0.23823876678943634,  1.9430088996887207,   -0.23120304942131042,
	 -0.32423004508018494,  -0.10920484364032745, 0.009261179715394974,
	 -0.36420243978500366,  -0.08389902114868164, -0.17232070863246918,
	 -0.30017751455307007,  -0.5167836546897888,  0.6964998841285706,
	 -0.21521088480949402,  -0.1666601449251175,  -0.3681948482990265,
	 -0.10523249953985214},
	{-0.24082538485527039,  -0.17665928602218628, -0.05942533165216446,
	 -0.2846987247467041,   0.26110753417015076,  -0.17269650101661682,
	 -0.270963579416275,	0.10329671949148178,  -0.010322311893105507,
	 -0.021247582510113716, -1.3984477519989014,  -0.17225541174411774,
	 -0.16597968339920044,  0.24247020483016968,  0.29116594791412354,
	 0.1356448233127594,	-0.7023996114730835,  1.1066086292266846,
	 -0.07581077516078949,  -0.39641493558883667, -0.20129020512104034,
	 -0.5691487193107605,   0.14775192737579346,  -0.2251405268907547,
	 -0.24617715179920197,  -0.4908459186553955,  -0.6719534993171692,
	 -1.4809802770614624,   0.0760471448302269,   -0.5499201416969299,
	 -0.8842359781265259,   0.5811275839805603,   -0.9693990349769592,
	 -0.9131801724433899,   -0.3372938632965088,  0.1927848607301712,
	 0.20276814699172974,   0.47967833280563354,  -0.8103864192962646,
	 -0.11262933909893036,  -0.01333764661103487, -0.8729181885719299,
	 -0.6164162158966064,   -0.2262863963842392,  -0.6287518739700317,
	 -0.198708176612854,	-0.5540340542793274,  -0.43255361914634705,
	 -0.5893610715866089,   -0.20821593701839447, -0.4451909065246582,
	 0.08694584667682648,   -1.0245684385299683,  -0.9237164855003357,
	 -0.07231004536151886,  -0.7837895154953003,  -0.11326119303703308,
	 0.4681233763694763,	-0.08773107081651688, -0.14558158814907074,
	 0.03345974534749985,   -0.2911519706249237,  0.3707757890224457,
	 -0.1447717398405075},
	{-0.31882721185684204, 0.30698782205581665,   -0.39248397946357727,
	 0.047337476164102554, 0.36343878507614136,   -0.23745600879192352,
	 -1.4503058195114136,  0.1835217922925949,	-0.15626952052116394,
	 0.5564395785331726,   -0.20041674375534058,  -0.21659475564956665,
	 -0.2613416314125061,  -0.3284313976764679,   -0.48619651794433594,
	 -0.17916648089885712, 0.19126756489276886,   -0.4069075286388397,
	 -0.20936864614486694, -0.6252238154411316,   0.005685796495527029,
	 -0.4271833002567291,  -0.7013043165206909,   -0.4828258454799652,
	 -0.2990838885307312,  0.7554035186767578,	-0.5676036477088928,
	 -0.680006742477417,   -0.800041913986206,	0.05817678943276405,
	 -0.11810580641031265, -0.5079641342163086,   0.6595262885093689,
	 0.11635711789131165,  -0.686800479888916,	0.22412075102329254,
	 -0.1714220494031906,  -0.026133928447961807, -0.15428192913532257,
	 -0.01353274006396532, 0.14041641354560852,   -0.387241929769516,
	 0.13649849593639374,  -0.8029218316078186,   -1.8756513595581055,
	 -0.21083791553974152, -0.4303775429725647,   0.3322196304798126,
	 -0.10160576552152634, -0.5694888830184937,   -0.37102338671684265,
	 -0.7112712264060974,  0.4477878212928772,	0.4225088059902191,
	 0.06749261170625687,  0.058455318212509155,  -0.3130236864089966,
	 -0.5136812329292297,  -0.3680209815502167,   -0.8165690302848816,
	 0.17199279367923737,  -0.16398851573467255,  0.6640496850013733,
	 0.0939202532172203},
	{-0.3864494860172272,  1.408942461013794,	 -0.7439663410186768,
	 -0.5064978003501892,  -0.45738014578819275,  -0.42574235796928406,
	 -0.5863267183303833,  0.002258085645735264,  -0.21637442708015442,
	 -0.45373207330703735, -0.42095786333084106,  -0.829355776309967,
	 -0.22511926293373108, -0.004975340329110622, -0.23666426539421082,
	 0.06332312524318695,  -0.22006650269031525,  -0.41976261138916016,
	 -0.3126949965953827,  -1.1603549718856812,   -0.30473247170448303,
	 -0.4450772702693939,  -0.14839313924312592,  -0.23004133999347687,
	 -0.3895879089832306,  0.3446590006351471,	-0.30181506276130676,
	 -0.6393003463745117,  -0.3291996419429779,   -0.12536469101905823,
	 -0.6680757999420166,  0.3097335696220398,	0.16374067962169647,
	 -0.31994813680648804, 0.08535490930080414,   0.4307103753089905,
	 0.028176160529255867, -0.4076952040195465,   -0.1215018704533577,
	 -0.07280301302671432, 0.004132264759391546,  -0.0027128865476697683,
	 -0.12822528183460236, -0.5794164538383484,   -0.5303788781166077,
	 -0.19703806936740875, -0.7462776303291321,   0.06715261936187744,
	 -0.3017628490924835,  -0.1062072142958641,   -0.09394776821136475,
	 0.2598293125629425,   -1.5508183240890503,   -0.5140726566314697,
	 -0.348675936460495,   -0.03911370038986206,  0.037805087864398956,
	 -0.7859928011894226,  0.7452031970024109,	0.06825883686542511,
	 -0.04016261175274849, 0.04206974804401398,   0.42336639761924744,
	 0.16662408411502838},
	{0.1410592496395111,	-0.3305616080760956,   -0.7546387314796448,
	 -0.08980689197778702,  -0.4378967583179474,   1.476025104522705,
	 0.5260598659515381,	-0.06334852427244186,  0.1580977737903595,
	 0.050258468836545944,  -0.13385426998138428,  -0.2270030528306961,
	 -0.09977053105831146,  -0.5070629715919495,   -0.3455260396003723,
	 -0.046003472059965134, -0.12620972096920013,  -0.3541073203086853,
	 -0.14939214289188385,  -0.10230810940265656,  -0.2984547019004822,
	 0.03261951357126236,   -0.41565585136413574,  -0.20761613547801971,
	 0.18889515101909637,   0.7049078345298767,	-0.5120190382003784,
	 0.17313651740550995,   -0.9049586653709412,   0.10711325705051422,
	 -0.31091755628585815,  -0.28126391768455505,  -1.1866542100906372,
	 -0.4066513776779175,   -0.40509164333343506,  0.19417527318000793,
	 -0.5840962529182434,   -0.2469809353351593,   0.24030202627182007,
	 -0.2073519080877304,   -0.21639816462993622,  -0.1955852508544922,
	 0.22791531682014465,   -0.6472301483154297,   -1.277945637702942,
	 -0.14705242216587067,  -0.26949745416641235,  -0.06698276102542877,
	 -0.3826577365398407,   0.028932828456163406,  -0.2984435558319092,
	 -0.43685832619667053,  0.12558157742023468,   -1.1260643005371094,
	 -0.10560113191604614,  -0.002470180857926607, -0.2930300831794739,
	 -0.14248666167259216,  -0.3397599458694458,   -0.2014165222644806,
	 -0.27505823969841003,  0.21392112970352173,   -1.7863426208496094,
	 -0.0149717777967453},
	{-1.1043117046356201,  -0.6594440340995789,   0.058536577969789505,
	 0.14208640158176422,  -0.5839565396308899,   0.018650885671377182,
	 -0.3778015673160553,  -0.2560209333896637,   -0.2861616313457489,
	 -0.36552688479423523, -0.3042323887348175,   -0.4728858768939972,
	 0.18883036077022552,  0.1057867705821991,	0.24914638698101044,
	 -0.11624385416507721, -0.4072343111038208,   0.1957133561372757,
	 -0.06987214833498001, 0.04586200788617134,   -0.43116647005081177,
	 -0.6730733513832092,  -0.4084695279598236,   0.1933344602584839,
	 -0.30287790298461914, -0.8438972234725952,   1.4398417472839355,
	 -0.11666776984930038, -0.000576819060370326, -0.3760937750339508,
	 -0.4296684265136719,  0.8908703327178955,	-0.6164431571960449,
	 -0.4559275507926941,  -0.38361820578575134,  0.11892234534025192,
	 -0.3906973600387573,  0.06075357273221016,   -1.6097465753555298,
	 0.07804559171199799,  -0.1758497953414917,   -0.11748954653739929,
	 -0.10002532601356506, 1.6578645706176758,	-0.06592869013547897,
	 -0.18102414906024933, -0.1202516108751297,   -0.5280755162239075,
	 -0.2789112329483032,  -0.8265629410743713,   -0.3159489333629608,
	 0.40354079008102417,  -0.858489453792572,	-0.4670930504798889,
	 -0.2792423665523529,  -0.22841960191726685,  -0.01177823543548584,
	 0.1819765269756317,   0.18469688296318054,   -0.11471318453550339,
	 -0.12725813686847687, -0.3937186896800995,   0.6067726612091064,
	 -0.6180885434150696},
	{-1.0871632099151611,  -0.4532097578048706,  -0.7134474515914917,
	 -0.02033306658267975, -1.1325582265853882,  -0.1503768414258957,
	 -0.5335212349891663,  0.16135984659194946,  0.48434481024742126,
	 -0.07718805968761444, -0.42130333185195923, -0.9766389727592468,
	 -0.651804506778717,   0.7892442941665649,   -0.948581337928772,
	 -0.14375260472297668, -1.228192925453186,   -1.173979640007019,
	 -0.5696517825126648,  -0.7002243399620056,  -0.4425866901874542,
	 -0.5473010540008545,  -0.8056846857070923,  -0.4911611080169678,
	 -0.3464477062225342,  -0.9528453946113586,  -0.5673099160194397,
	 -0.8120115399360657,  -0.2685204744338989,  -0.3311336040496826,
	 -0.31161800026893616, 0.4571114182472229,   -0.783513069152832,
	 0.13967852294445038,  -1.2593811750411987,  0.04923637956380844,
	 -0.5587872266769409,  -0.3679399788379669,  0.4028259217739105,
	 -1.1256743669509888,  0.3983459770679474,   -0.6043123006820679,
	 0.038995034992694855, -0.8199629187583923,  -1.8832745552062988,
	 -0.8876261711120605,  -0.8712738752365112,  0.48587173223495483,
	 0.37107184529304504,  -0.3669297397136688,  -1.5268285274505615,
	 0.07315769791603088,  -0.7389720678329468,  0.4022207260131836,
	 0.3184652626514435,   0.4772626459598541,   -0.5295900702476501,
	 0.2731761634349823,   -0.5917309522628784,  0.2279427945613861,
	 -0.4583199918270111,  -0.3454219102859497,  0.44394007325172424,
	 0.42078548669815063},
	{-0.5876486897468567,  -0.4650217294692993,  0.05111908167600632,
	 -0.26571181416511536, -0.5554406642913818,  -0.3165169656276703,
	 -0.3575687110424042,  -0.9680635333061218,  -0.7001029253005981,
	 -0.3485584557056427,  -0.46020105481147766, -1.0167210102081299,
	 -0.42514491081237793, -0.4331536889076233,  -0.2923416197299957,
	 -0.25366735458374023, -0.3389953076839447,  0.15371030569076538,
	 -0.1464163064956665,  -0.5043936967849731,  -0.43610256910324097,
	 -0.7054190039634705,  -0.5567395091056824,  -0.463593989610672,
	 -0.07916580140590668, -0.3484084904193878,  -0.5088629722595215,
	 -0.4146941304206848,  -0.42907044291496277, -0.2192912995815277,
	 -0.28176844120025635, -0.28271278738975525, -0.32935574650764465,
	 -0.49932143092155457, -0.49045273661613464, -0.16626890003681183,
	 -0.4480392634868622,  -0.5663320422172546,  -1.2931218147277832,
	 -0.5319008231163025,  -0.6702325940132141,  -0.41901394724845886,
	 -0.2391778528690338,  -0.20536291599273682, -0.565059244632721,
	 -0.5732625722885132,  -0.33953002095222473, -0.43155238032341003,
	 0.007952548563480377, -0.37306392192840576, -0.2110907882452011,
	 -0.4187365472316742,  -0.04803362488746643, -0.13557057082653046,
	 0.19180385768413544,  -0.12095282971858978, 0.2921505570411682,
	 0.10307789593935013,  0.2723856270313263,   -0.3380075991153717,
	 -0.29032960534095764, -0.7743308544158936,  1.1197198629379272,
	 -0.16881917417049408},
	{0.16879741847515106,  -0.4513275921344757,  0.5222035646438599,
	 -0.3339883089065552,  -0.03541819751262665, -0.6810035705566406,
	 -1.3608444929122925,  0.7001523971557617,   -0.17775867879390717,
	 0.4315349757671356,   -1.10414457321167,	0.7705531716346741,
	 0.21488407254219055,  -0.6840206384658813,  -0.7539225816726685,
	 -1.3837199211120605,  -0.39538154006004333, -0.1316540241241455,
	 -0.6037181615829468,  -0.709571361541748,   -0.11818249523639679,
	 -0.27663716673851013, 0.46076780557632446,  -0.7231611609458923,
	 0.19521163403987885,  -0.797913670539856,   -1.3423213958740234,
	 -0.4853940010070801,  -0.5674166679382324,  0.0579121932387352,
	 -1.7495849132537842,  -0.769115686416626,   0.29372695088386536,
	 -0.5128605365753174,  -0.10568151623010635, 0.21820105612277985,
	 -2.0853981971740723,  0.5385215878486633,   -0.7109717726707458,
	 0.12857723236083984,  0.3669683337211609,   0.09432680159807205,
	 -0.9523403644561768,  -0.37253305315971375, -0.8380815982818604,
	 -0.630506694316864,   -0.7642252445220947,  -0.40389421582221985,
	 -0.22667336463928223, -0.4384835362434387,  -0.6126453876495361,
	 -0.5554925203323364,  -0.5166375637054443,  -0.04996068775653839,
	 -0.27822360396385193, -0.3835362195968628,  -0.13589513301849365,
	 -0.35186031460762024, -0.7493398785591125,  -1.6057311296463013,
	 -0.21226675808429718, -0.18780460953712463, -1.0455868244171143,
	 -0.20099307596683502},
	{0.0452752560377121,   -0.25352922081947327, -0.3795820474624634,
	 -0.5122171640396118,  -0.111672542989254,   -1.7933800220489502,
	 0.7429985404014587,   -0.6230947375297546,  0.10016242414712906,
	 -1.0679752826690674,  -0.39423036575317383, -1.3047734498977661,
	 -1.0308016538619995,  -0.6210423111915588,  -0.8068999648094177,
	 -0.1972142606973648,  -1.6967774629592896,  -1.3888829946517944,
	 0.38222578167915344,  -0.5205867886543274,  -0.19196268916130066,
	 -1.5037962198257446,  -1.4768788814544678,  -0.2656616270542145,
	 -1.404057264328003,   -0.42441418766975403, 0.05747804418206215,
	 -0.8397554159164429,  -0.87338787317276,	-0.017098940908908844,
	 -0.9225630164146423,  -0.3802473247051239,  -0.476150780916214,
	 -1.391837239265442,   0.2930764853954315,   -1.2265074253082275,
	 -0.16901816427707672, -1.1076823472976685,  0.2566874921321869,
	 -0.02989249676465988, -1.5256117582321167,  -0.6835814118385315,
	 -0.7348397374153137,  0.2678275406360626,   -1.8309863805770874,
	 0.3891243636608124,   -0.8801810145378113,  -0.21375465393066406,
	 0.371476411819458,	0.030805233865976334, 0.12909755110740662,
	 0.13007929921150208,  -0.8544573783874512,  -0.3195798993110657,
	 -0.8372907042503357,  -0.261527419090271,   -0.5690273642539978,
	 -0.7202489972114563,  -0.24310879409313202, -0.2761019766330719,
	 -1.2953596115112305,  0.9326943159103394,   -1.4816070795059204,
	 -0.25200891494750977},
	{0.004999539814889431,  -0.18715766072273254, -0.7786665558815002,
	 0.04547908902168274,   -0.9780247211456299,  -0.3657638430595398,
	 0.20341859757900238,   -0.2600448429584503,  -0.3564673960208893,
	 0.3568911850452423,	-0.3492705225944519,  -0.14536018669605255,
	 -0.8192066550254822,   -0.08924304693937302, -0.22882986068725586,
	 -0.6148185729980469,   -0.26482096314430237, 0.09905479103326797,
	 0.0069794245064258575, -0.06958860903978348, -0.0007695468957535923,
	 0.23711740970611572,   -0.20079553127288818, 0.5806244015693665,
	 -0.3989843726158142,   -0.7820272445678711,  0.10622403770685196,
	 -0.23993812501430511,  -0.30347973108291626, -0.24576956033706665,
	 0.16003204882144928,   -0.44474586844444275, -1.3554576635360718,
	 1.3140900135040283,	-0.7904255390167236,  -0.25541943311691284,
	 -0.8958057761192322,   -0.6001649498939514,  -0.37398815155029297,
	 -0.02932174876332283,  -0.14968933165073395, -0.4977468252182007,
	 0.467593252658844,		-0.6652665138244629,  0.6554508209228516,
	 -0.7979479432106018,   -0.271183043718338,   -0.37646475434303284,
	 -0.25538527965545654,  0.5423580408096313,   -0.5762829780578613,
	 -0.39864227175712585,  -0.5878658294677734,  -0.7659255266189575,
	 -0.191999152302742,	-0.39020225405693054, -0.5809212327003479,
	 -0.21924899518489838,  -0.400461882352829,   0.35500264167785645,
	 -0.6880708932876587,   0.3313851058483124,   0.009579773992300034,
	 -0.22651422023773193},
	{0.6359450817108154,   -0.2529740631580353,  -0.47559547424316406,
	 -0.44604575634002686, -0.13633181154727936, -1.1496027708053589,
	 -0.2472054362297058,  -1.3915728330612183,  0.752974271774292,
	 -0.5803557634353638,  -0.18277877569198608, 0.4617009162902832,
	 -0.1608237326145172,  0.37591439485549927,  -0.7769206166267395,
	 -0.17167356610298157, -1.627247929573059,   -0.14530599117279053,
	 0.8382009863853455,   -1.2440680265426636,  -1.421513557434082,
	 0.4783899188041687,   -0.8269019722938538,  0.09041726589202881,
	 -1.1394046545028687,  -0.5258554220199585,  -0.8479989767074585,
	 -0.7263925671577454,  0.30843600630760193,  -0.8242226243019104,
	 -0.18207117915153503, -1.4595645666122437,  -0.5326154232025146,
	 -0.8876311182975769,  -0.8207118511199951,  -0.40310147404670715,
	 -0.7795147895812988,  -1.4306268692016602,  -0.5192601084709167,
	 -0.31339356303215027, -1.0631471872329712,  -0.45200061798095703,
	 0.2259969562292099,   0.2831144630908966,   -0.9198957085609436,
	 -0.6039530634880066,  -0.49267393350601196, -1.0289616584777832,
	 -0.7680191993713379,  -0.263958603143692,   -1.5005465745925903,
	 0.31829604506492615,  -0.2944934368133545,  -0.9074605703353882,
	 -0.8469763994216919,  -0.40607962012290955, -0.9367457628250122,
	 -1.1104979515075684,  0.030567128211259842, -0.2787104845046997,
	 0.4227276146411896,   0.5569098591804504,   -0.5175065398216248,
	 -0.26611030101776123},
	{-0.3798327147960663,  -0.41002875566482544, -0.613950788974762,
	 -0.624555766582489,   -0.13073769211769104, -0.717450737953186,
	 0.6947929859161377,   0.045072637498378754, -0.13511691987514496,
	 -0.09658809006214142, 0.007117976900190115, -0.4430191218852997,
	 -0.40924525260925293, -0.6431788802146912,  -0.35341405868530273,
	 -0.6382025480270386,  1.5875742435455322,   -0.183923602104187,
	 0.23039117455482483,  -0.18548157811164856, 0.1740092933177948,
	 -0.5615106225013733,  -0.5881478786468506,  -0.040240559726953506,
	 -1.0206117630004883,  0.11917566508054733,  0.08028578758239746,
	 -0.48843640089035034, -0.6089482307434082,  0.1571873128414154,
	 -0.33362096548080444, -0.05225726217031479, -1.1147860288619995,
	 -0.3218703866004944,  -0.24964313209056854, -0.15662717819213867,
	 0.09679263830184937,  -0.08723939955234528, 0.011124745942652225,
	 -0.15538455545902252, -0.2869144678115845,  -0.6672383546829224,
	 0.06448022276163101,  -0.5195611119270325,  -0.7021209001541138,
	 -0.4514906108379364,  0.4043528437614441,   0.15631413459777832,
	 -0.2624463140964508,  -0.01991293393075466, -0.25131064653396606,
	 -0.28419074416160583, -0.7431660294532776,  0.02537113055586815,
	 -0.17736981809139252, 0.14117105305194855,  -1.091081976890564,
	 -0.2788696885108948,  -0.00347689725458622, 0.4606465995311737,
	 -0.3784754276275635,  0.051695384085178375, 0.030528752133250237,
	 -0.25878143310546875},
	{-0.2494218498468399,  -0.2455764263868332,   -1.0398576259613037,
	 -0.8429744839668274,  -0.1347881257534027,   -1.0436596870422363,
	 -0.7421404123306274,  -0.775020956993103,	0.24272452294826508,
	 -0.8964527249336243,  -0.7350547909736633,   -0.2266107201576233,
	 0.12585797905921936,  -0.1845068633556366,   -0.4553219974040985,
	 -0.11952473223209381, -0.329602986574173,	0.04765874892473221,
	 0.6072761416435242,   0.05348954349756241,   0.6154192090034485,
	 0.2733219563961029,   -0.02144739218056202,  0.859359622001648,
	 -0.7994510531425476,  -1.1013832092285156,   -0.497477650642395,
	 -0.8365198373794556,  -0.021850816905498505, -0.9673091173171997,
	 0.4425918161869049,   -1.1600358486175537,   -0.49152082204818726,
	 -0.5041590332984924,  -0.873307466506958,	-1.3253830671310425,
	 -0.6367679238319397,  -0.8828901648521423,   -0.1789196878671646,
	 -0.7458226084709167,  -0.29113924503326416,  -0.2506808042526245,
	 0.8318657875061035,   -0.15814432501792908,  -0.9393312335014343,
	 -0.6816829442977905,  -0.8999643921852112,   0.10451743751764297,
	 -0.7017871141433716,  -0.6029250025749207,   -0.7260498404502869,
	 0.130756676197052,	0.19920137524604797,   -0.2536694407463074,
	 -0.34856754541397095, 0.09661772847175598,   -0.5931991338729858,
	 -1.138329029083252,   0.04900303855538368,   -0.29674091935157776,
	 -0.6558912396430969,  -0.39654988050460815,  -0.04282338172197342,
	 -0.7945517301559448},
	{-0.37699732184410095, -0.1917993128299713,  0.8875551223754883,
	 -0.01846473105251789, -0.4599475562572479,  -0.4479179382324219,
	 -0.6431828141212463,  -0.09280691295862198, -0.0011860070517286658,
	 -0.39965057373046875, -0.17090314626693726, -0.3905788064002991,
	 -0.4010782539844513,  -0.18478365242481232, 0.01991875097155571,
	 -0.18649984896183014, -0.07035506516695023, -0.04553556069731712,
	 -0.7398245334625244,  0.32208916544914246,  -0.07410498708486557,
	 -0.42556604743003845, -0.2730714976787567,  -0.15584364533424377,
	 0.570925772190094,	0.11650499701499939,  -0.46739494800567627,
	 -0.8698780536651611,  0.10278763622045517,  0.0885755866765976,
	 0.3003425598144531,   -0.8105868697166443,  -0.47767776250839233,
	 -0.32177308201789856, -0.20184974372386932, -0.3599426746368408,
	 -0.33679187297821045, 0.23039911687374115,  -0.5769171714782715,
	 -0.2849540412425995,  0.05268339440226555,  -0.7250574827194214,
	 -0.39457055926322937, -0.538046658039093,   -0.7946269512176514,
	 0.10719416290521622,  -0.5312900543212891,  -0.321673184633255,
	 -0.11948210000991821, -0.875539243221283,   -0.20097695291042328,
	 -0.8658844232559204,  -0.20766572654247284, -0.8057948350906372,
	 -0.03195096179842949, 0.008260713890194893, -0.24894243478775024,
	 -0.21417059004306793, -0.3795725107192993,  1.1903289556503296,
	 -0.36852872371673584, 0.29287639260292053,  -0.25944826006889343,
	 0.04073328897356987},
	{-0.6256889700889587,   0.09224763512611389,  -0.1553657203912735,
	 0.35619035363197327,   -0.3479689657688141,  -0.30662330985069275,
	 -0.5448875427246094,   -0.5082958936691284,  -0.002919277176260948,
	 -0.013800591230392456, -0.3372209668159485,  0.0832764133810997,
	 -0.2786182761192322,   -0.3249059319496155,  0.7187671065330505,
	 -0.08413923531770706,  -0.3484255075454712,  -0.04382476583123207,
	 -0.16478967666625977,  -0.6598669290542603,  -0.4434276521205902,
	 -0.4357771575450897,   0.5947049260139465,   -0.5456550121307373,
	 -0.6592617034912109,   -0.7699580788612366,  -0.9079486727714539,
	 -0.11678438633680344,  -0.5854814648628235,  -0.9858874678611755,
	 -0.3667301833629608,   -1.0177807807922363,  -0.5534812808036804,
	 0.026310428977012634,  -0.39455506205558777, 0.6548387408256531,
	 0.19404403865337372,   -0.2932300269603729,  -0.8417216539382935,
	 -0.2907860577106476,   -0.2449193298816681,  -0.894315242767334,
	 0.19601447880268097,   -0.1949913650751114,  -0.5669482350349426,
	 -0.552573561668396,	-0.29607388377189636, -0.4461655616760254,
	 -0.27190136909484863,  -0.1256828010082245,  0.09857627749443054,
	 -0.46362069249153137,  -0.6297987103462219,  -0.21666784584522247,
	 -0.005863639991730452, -0.10468704998493195, -0.3315858840942383,
	 0.0019918219186365604, 0.3876532316207886,   -0.5592041611671448,
	 -0.23727568984031677,  -0.12095575034618378, -0.423856645822525,
	 -0.8791530728340149},
	{-0.5340505242347717,  -0.17967072129249573, -0.2284972071647644,
	 0.3723233938217163,   -0.3710615336894989,  -1.1187357902526855,
	 -0.048900056630373,   0.0585799515247345,   0.8882983326911926,
	 -0.6085922122001648,  -0.893478274345398,   -0.16625450551509857,
	 0.12481333315372467,  -0.26582321524620056, -0.6933220624923706,
	 -0.2844696044921875,  -0.7110167741775513,  -0.2962605357170105,
	 -0.2035178393125534,  0.18886947631835938,  -0.23329809308052063,
	 -0.1273627132177353,  0.5853064656257629,   0.3153141736984253,
	 -0.6445745229721069,  -0.9592090249061584,  -0.12864194810390472,
	 -0.10190465301275253, -0.6325837969779968,  -0.25316640734672546,
	 -1.3179811239242554,  -0.5563480854034424,  -0.7721574902534485,
	 -1.5532134771347046,  -0.161947101354599,   -0.3153362572193146,
	 -1.2598776817321777,  0.8105756640434265,   -0.2580428719520569,
	 -0.24685239791870117, -0.26935136318206787, -0.28194719552993774,
	 -0.8682411313056946,  -0.3702060580253601,  -1.888098120689392,
	 -0.4697081446647644,  -0.542123019695282,   -0.8017703294754028,
	 -0.6596555113792419,  1.1231770515441895,   -0.3839389979839325,
	 -0.36282122135162354, -0.4465547502040863,  -0.5324033498764038,
	 -1.0304168462753296,  -1.138106107711792,   -0.13358190655708313,
	 -0.06333716958761215, -0.6239100694656372,  0.1099160760641098,
	 -0.15776558220386505, -0.2619762420654297,  -0.2886936366558075,
	 0.0052968403324484825},
	{0.535382866859436,		 -0.03220615163445473, -0.9792372584342957,
	 -0.23959815502166748,   -0.4026872217655182,  -0.037107087671756744,
	 0.5572196841239929,	 0.2980789840221405,   0.16974566876888275,
	 -0.5721936821937561,	-0.38107696175575256, -0.465032160282135,
	 -0.5858702063560486,	-0.4834482669830322,  -0.20128527283668518,
	 -0.06939512491226196,   0.66923987865448,	 -0.15642203390598297,
	 -0.3744322657585144,	-0.18494383990764618, -1.1855412721633911,
	 -0.2084258496761322,	-0.2368113100528717,  -0.012924173846840858,
	 -0.46279487013816833,   0.9638270735740662,   -0.45887044072151184,
	 -0.45881879329681396,   -1.2229582071304321,  -0.035006843507289886,
	 0.1691351681947708,	 -0.6936843395233154,  0.2716576159000397,
	 -0.23319397866725922,   -0.20087990164756775, 0.2735190689563751,
	 -0.08217205107212067,   -0.4458605945110321,  0.14149880409240723,
	 0.10790716856718063,	-0.2012474089860916,  -0.546509325504303,
	 -0.1860959827899933,	-0.14250513911247253, -0.8614012598991394,
	 -0.5024005174636841,	-0.5505426526069641,  -0.2971426844596863,
	 -0.07403754442930222,   -0.7937614917755127,  0.18479982018470764,
	 -0.5428712368011475,	0.5694105625152588,   -1.167093276977539,
	 -0.6077433824539185,	-0.2157176285982132,  -0.014012695290148258,
	 -0.6288410425186157,	-0.9641973972320557,  -0.13482798635959625,
	 -0.0013972176238894463, -0.03547362983226776, -1.1875296831130981,
	 -0.2785341441631317},
	{-0.55202317237854,		0.1130150705575943,   -0.247886523604393,
	 0.267544150352478,		0.2945864796638489,   -0.5387120842933655,
	 0.4310166835784912,	-0.09964043647050858, 0.10523306578397751,
	 -0.12105535715818405,  -0.14914476871490479, 0.4364185035228729,
	 0.09891758114099503,   0.2005019336938858,   -0.496541827917099,
	 -0.024838728830218315, -0.46882152557373047, 0.5516263842582703,
	 -0.5324186086654663,   -0.2540959119796753,  0.4782826900482178,
	 0.27524712681770325,   0.3871290385723114,   -0.7137605547904968,
	 -0.44915691018104553,  -0.17266274988651276, -0.5525919795036316,
	 0.35314202308654785,   -0.5879446864128113,  -0.3208392858505249,
	 -0.19112640619277954,  -0.10388337075710297, 0.7305509448051453,
	 -0.17018796503543854,  0.1681431531906128,   -0.14841029047966003,
	 -0.5136333107948303,   -0.9151627421379089,  0.024114258587360382,
	 -0.5486063361167908,   0.3595685064792633,   -0.029228640720248222,
	 -0.2917880117893219,   -0.4723680317401886,  -2.521111011505127,
	 -0.3756166100502014,   -0.7733211517333984,  -0.36671799421310425,
	 0.6865207552909851,	-0.17088869214057922, -0.5576566457748413,
	 -0.6121894121170044,   -0.934922993183136,   -0.11752548813819885,
	 -0.6321151852607727,   -0.3745167851448059,  -0.0024508838541805744,
	 -0.6270723342895508,   -0.944893479347229,   -0.037068478763103485,
	 -0.7318686842918396,   -0.12173619866371155, 1.3524525165557861,
	 0.527413010597229},
	{-0.38953471183776855, 0.052234161645174026, -0.2201288789510727,
	 0.22257626056671143,  -0.4490754008293152,  -0.02834104746580124,
	 -0.06305472552776337, -0.05728628858923912, -0.25087064504623413,
	 -0.07478362321853638, -0.5906990766525269,  -0.840013325214386,
	 -0.27363765239715576, 0.47612637281417847,  -0.050107333809137344,
	 0.5288688540458679,   -0.3029990494251251,  -0.3145850896835327,
	 -0.19992637634277344, -0.25673583149909973, -0.017064131796360016,
	 -1.1742446422576904,  -0.8431726098060608,  -0.3508366048336029,
	 -0.5883048176765442,  0.4091181755065918,   -0.773126482963562,
	 0.433464378118515,	-0.19197313487529755, -0.6782755255699158,
	 -0.16837602853775024, 0.38899609446525574,  1.3013840913772583,
	 -0.3156787157058716,  -0.2444014996290207,  0.6851219534873962,
	 0.4315827786922455,   -0.14584310352802277, -0.29795172810554504,
	 -0.39704015851020813, 0.11841721087694168,  -0.326374351978302,
	 -0.6020103096961975,  -0.6594756841659546,  -1.4841903448104858,
	 0.06317809969186783,  -0.6252337694168091,  -0.4940335750579834,
	 -0.24725143611431122, -0.24161790311336517, 0.02799255959689617,
	 -0.5238909125328064,  -0.5490748882293701,  0.07858933508396149,
	 -0.03580266982316971, -0.24799014627933502, -0.30319616198539734,
	 -0.7206857800483704,  0.11483171582221985,  0.04749413952231407,
	 -0.11452329903841019, -0.04683184623718262, 0.24757567048072815,
	 -0.7875797152519226},
	{-0.2934103310108185,  -0.14342200756072998, -0.20930634438991547,
	 0.04596780985593796,  -0.5236762166023254,  -0.5756630897521973,
	 -0.6032060384750366,  -0.7372440099716187,  -0.1258542686700821,
	 -0.763158917427063,   0.5787813067436218,   -0.30025672912597656,
	 -0.12641718983650208, 0.1114540621638298,   -1.0410990715026855,
	 -0.7077098488807678,  -0.5795561671257019,  -0.07729647308588028,
	 0.014681391417980194, -0.48744407296180725, 0.6727980971336365,
	 -0.41517433524131775, -0.7907335758209229,  -0.4376072585582733,
	 -0.5625495910644531,  -0.4780847132205963,  -1.397912859916687,
	 -0.9703075289726257,  -0.02841169200837612, -0.41922298073768616,
	 -0.2988528907299042,  -0.31317082047462463, -0.7850587368011475,
	 -0.26839709281921387, 0.07812213897705078,  0.41019541025161743,
	 0.05075705796480179,  -0.8959015011787415,  0.004763011354953051,
	 0.5949617028236389,   -1.1922662258148193,  -0.11286327242851257,
	 0.4184688925743103,   -0.39017024636268616, -0.738975465297699,
	 -0.3570035696029663,  -0.2315523475408554,  0.2615280747413635,
	 -0.36048993468284607, -0.27843931317329407, -0.34334245324134827,
	 -0.11458515375852585, -0.7142019271850586,  0.06508678197860718,
	 -0.3857716917991638,  -1.0478460788726807,  0.7368662357330322,
	 -0.13715343177318573, -0.17123539745807648, 0.39966779947280884,
	 0.3748583495616913,   -0.45399585366249084, 0.4457072913646698,
	 -0.5028190016746521},
	{0.07261520624160767,  -0.6247844099998474,   0.023877689614892006,
	 -0.9095706343650818,  -0.26475396752357483,  -0.4374617338180542,
	 -0.06609884649515152, -0.3527483642101288,   -0.5267833471298218,
	 -0.3674180805683136,  -0.9773187637329102,   -0.4641295075416565,
	 -0.11062121391296387, 0.20316119492053986,   -0.6371663808822632,
	 0.26850220561027527,  -0.2583254277706146,   -0.1406182497739792,
	 -0.09701350331306458, -0.3933970630168915,   -0.14613460004329681,
	 -0.734311580657959,   -0.12535494565963745,  0.14171215891838074,
	 -0.19124148786067963, -0.06491405516862869,  0.35080936551094055,
	 0.1655937284231186,   -0.043567292392253876, -0.6090344190597534,
	 -0.27914491295814514, 0.050309278070926666,  -0.031106095761060715,
	 -0.07613317668437958, -0.02034897357225418,  -0.6888507604598999,
	 0.1385728418827057,   0.35631680488586426,   -1.0975054502487183,
	 -0.777974545955658,   -0.19148941338062286,  -0.03686387836933136,
	 -0.2664659321308136,  1.0889173746109009,	-0.6300578713417053,
	 0.201370507478714,	0.1625600904226303,	-0.18639975786209106,
	 -0.5383527874946594,  -0.7673593759536743,   0.15138034522533417,
	 0.35300368070602417,  -0.32061946392059326,  -0.5152685642242432,
	 -0.37431398034095764, -0.26233750581741333,  0.44161897897720337,
	 -0.24514415860176086, -0.01972164399921894,  0.2651080787181854,
	 -0.19665628671646118, -0.31033796072006226,  -1.0016850233078003,
	 -0.7993198037147522},
	{0.09780029952526093,  -0.04094013199210167, 0.6550010442733765,
	 0.023983392864465714, -0.3506012260913849,  -0.9807454943656921,
	 -0.02358950302004814, 0.5654560327529907,   0.6233163475990295,
	 -0.7686751484870911,  -0.3620658814907074,  0.11892493069171906,
	 0.4491473138332367,   -0.37216901779174805, -0.6220046877861023,
	 0.02815219573676586,  -0.4516110420227051,  -0.30123716592788696,
	 -0.23828645050525665, 0.23401391506195068,  -0.18193542957305908,
	 0.08818268030881882,  0.6589654088020325,   0.1914384812116623,
	 0.5518079996109009,   -1.1383694410324097,  -0.6246596574783325,
	 -0.3427210748195648,  0.043959662318229675, 0.5847808122634888,
	 0.8468870520591736,   -0.6370049118995667,  -0.7179564833641052,
	 0.07611468434333801,  0.14661073684692383,  -0.2994399666786194,
	 -0.7161880135536194,  0.5772151350975037,   -0.5148641467094421,
	 -0.2770019471645355,  -0.337795227766037,   -0.007744031026959419,
	 0.40131551027297974,  -0.6720306873321533,  0.3102768063545227,
	 -0.06004462391138077, -1.6867036819458008,  0.06011892482638359,
	 -0.8016771078109741,  1.284408688545227,	-0.03672900050878525,
	 -1.1579524278640747,  -0.9341455698013306,  -0.8059151768684387,
	 0.008396544493734837, -0.14861011505126953, -0.17163510620594025,
	 -0.07550372183322906, -0.3979727327823639,  0.5595729351043701,
	 -0.09229058027267456, -0.17370019853115082, -0.5358627438545227,
	 -0.18571244180202484},
	{0.07710953056812286,  -1.1088496446609497,  -0.286370187997818,
	 -0.2357720136642456,  -0.8932072520256042,  0.19488273561000824,
	 -0.32456639409065247, 0.08685160428285599,  -0.277560293674469,
	 0.6728627681732178,   -0.1688264161348343,  0.02154039964079857,
	 -0.7772846817970276,  0.04449508711695671,  -0.5086847543716431,
	 -0.9063369631767273,  -0.10452120006084442, -0.341107577085495,
	 0.10839981585741043,  -0.329745888710022,   -0.39569365978240967,
	 0.021306706592440605, -0.29001444578170776, 0.03996146470308304,
	 -0.37540191411972046, -0.45120182633399963, -0.3148418962955475,
	 -0.5257548689842224,  -0.09434357285499573, 0.10604287683963776,
	 0.022024137899279594, 1.1244068145751953,   -0.6476143598556519,
	 -0.5050622224807739,  -0.21740785241127014, 0.622227668762207,
	 -0.27331674098968506, 0.04576382040977478,  0.1588933914899826,
	 0.09015599638223648,  -0.2109987884759903,  -0.3289773464202881,
	 0.1246102899312973,   -1.6262484788894653,  0.24526363611221313,
	 0.653764009475708,	0.09434200823307037,  -0.8683433532714844,
	 -0.2730153799057007,  0.08821698278188705,  0.2565048336982727,
	 -0.5489552021026611,  0.5236872434616089,   -0.35104286670684814,
	 0.07993252575397491,  -0.30276772379875183, -0.14426586031913757,
	 -0.03642328083515167, -0.6627472043037415,  -0.1927984654903412,
	 -0.5173302292823792,  0.17135360836982727,  0.14277659356594086,
	 0.4685708284378052},
	{-0.5752661228179932,  -0.5902971625328064,  -0.8063868284225464,
	 -1.2909640073776245,  -0.9519344568252563,  0.35611748695373535,
	 -0.4167393147945404,  -0.8085299730300903,  -1.6388493776321411,
	 0.5491144061088562,   -0.2591088116168976,  -0.5015985369682312,
	 -0.8285085558891296,  0.06271297484636307,  0.2030353844165802,
	 0.26621541380882263,  -0.5718960165977478,  0.2508268654346466,
	 -0.9297149777412415,  -0.21794305741786957, 0.04113510623574257,
	 0.5571312308311462,   -0.12526938319206238, -0.8650120496749878,
	 -0.1225392147898674,  -0.6748568415641785,  -0.3977440893650055,
	 0.22603198885917664,  -0.6861147880554199,  -0.7081266641616821,
	 0.02067429944872856,  0.8123508095741272,   -0.6082119345664978,
	 -0.22960840165615082, -1.2909678220748901,  -0.7038392424583435,
	 -1.1421266794204712,  -0.9827207922935486,  -0.5585188865661621,
	 -0.6665452122688293,  -0.5360186696052551,  0.2540195882320404,
	 0.7452303767204285,   -0.3602766692638397,  -0.31065601110458374,
	 0.2977551817893982,   -0.29421308636665344, -0.8515353798866272,
	 -0.3952638804912567,  0.4270126521587372,   -0.08881125599145889,
	 -0.4264225661754608,  -0.5451763272285461,  0.5178812146186829,
	 0.28959205746650696,  -0.13457810878753662, -0.26037439703941345,
	 -0.8341161608695984,  0.5849337577819824,   -0.5606297254562378,
	 -0.5273163914680481,  -0.5291295051574707,  -0.4784542918205261,
	 -2.0013396739959717},
	{-1.0610285997390747,  -0.05786597728729248, 0.7567941546440125,
	 -0.3640013337135315,  -0.1707090586423874,  -0.23398931324481964,
	 -0.1982542723417282,  -0.03940245509147644, -0.7863832712173462,
	 0.16439999639987946,  0.05546250566840172,  -0.32958248257637024,
	 -0.874713659286499,   -1.1345535516738892,  0.08983667194843292,
	 -0.6929133534431458,  0.02433742955327034,  0.16176261007785797,
	 0.0456685908138752,   -0.24497509002685547, -0.07343374937772751,
	 -0.8643738031387329,  -0.6247891187667847,  -1.325146198272705,
	 -0.5266104936599731,  -0.29786357283592224, 0.4310765564441681,
	 0.15877604484558105,  -0.2626839280128479,  -1.4772971868515015,
	 0.18693062663078308,  -0.7828930616378784,  -0.25952377915382385,
	 -0.16244208812713623, -0.6927918791770935,  0.3098124563694,
	 -0.48660972714424133, -0.8685880303382874,  -0.8453815579414368,
	 -0.4368157684803009,  0.576162576675415,	-0.558310329914093,
	 0.12832070887088776,  -0.8641771674156189,  -0.7678713202476501,
	 -0.4572441875934601,  0.27292218804359436,  0.049341872334480286,
	 0.09347239881753922,  -0.2562004625797272,  -0.034704986959695816,
	 -0.9874988794326782,  -0.2753133475780487,  -0.014857943169772625,
	 -0.1564648151397705,  0.429218053817749,	-0.7974990606307983,
	 -0.6435354948043823,  -0.33029019832611084, -0.9076395034790039,
	 0.008129428140819073, -0.8411511182785034,  0.6978640556335449,
	 0.09072218090295792},
	{0.04299486055970192,   -0.21680931746959686, -0.8948537707328796,
	 -0.9289825558662415,   0.006745911668986082, -0.7861948013305664,
	 -0.016802379861474037, -1.0274004936218262,  0.2653871476650238,
	 -0.1997196078300476,   -0.3276185095310211,  -1.1037771701812744,
	 -0.8630640506744385,   -0.1851564347743988,  -0.3896948993206024,
	 -0.5917961001396179,   -0.24740836024284363, 0.08036915957927704,
	 0.32936394214630127,   -0.207952082157135,   -0.15444424748420715,
	 -0.011322788894176483, 0.5796180963516235,   0.07708563655614853,
	 0.36452344059944153,   -0.7294487357139587,  -0.06968923658132553,
	 -0.48620694875717163,  -0.8485279679298401,  -1.2154024839401245,
	 -0.6573064923286438,   -0.9352205991744995,  -0.9288806319236755,
	 0.2507331669330597,	-0.43820902705192566, -0.8656577467918396,
	 -0.8022881746292114,   0.26147738099098206,  0.049352481961250305,
	 -1.9711686372756958,   0.07638289779424667,  0.35488662123680115,
	 -0.0475095771253109,   -0.3357527554035187,  -0.14813391864299774,
	 -0.11081033945083618,  -0.2545540928840637,  -0.06702397763729095,
	 -0.3616451025009155,   -0.4375462830066681,  -0.5078904032707214,
	 0.41925299167633057,   -0.01760859601199627, -0.15872825682163239,
	 -0.5200204849243164,   -0.43600499629974365, -0.26613762974739075,
	 -0.7448575496673584,   -0.5553378462791443,  -0.1930597424507141,
	 -1.0888233184814453,   -0.12592662870883942, -0.38111740350723267,
	 -1.5378879308700562},
	{-0.530211329460144,   -0.44709086418151855, -0.5932773351669312,
	 0.377576619386673,	-0.36756187677383423, 0.09086579084396362,
	 -0.2796419560909271,  -0.05800880864262581, -0.4456346333026886,
	 -0.695168673992157,   -0.3478022515773773,  -0.8294825553894043,
	 0.41103726625442505,  0.08567996323108673,  -0.9119651913642883,
	 0.08278601616621017,  -0.358620822429657,   -0.6010282635688782,
	 -0.30709606409072876, -0.7475531101226807,  -0.7074273228645325,
	 -1.1964125633239746,  -0.8652445077896118,  -0.020309172570705414,
	 -0.11215879768133163, -1.034763216972351,   -0.2683778405189514,
	 -0.30888789892196655, 0.049277033656835556, -0.21031124889850616,
	 -0.22628194093704224, 0.1335354596376419,   -0.5430737137794495,
	 0.07302065938711166,  0.21753762662410736,  0.026587476953864098,
	 0.3505837321281433,   -0.39366865158081055, 0.16871251165866852,
	 -0.16636428236961365, -0.26464492082595825, 0.20766866207122803,
	 -0.13748908042907715, -1.1011582612991333,  -0.9883154630661011,
	 -0.8330239653587341,  1.3535797595977783,   0.13652878999710083,
	 -0.38650694489479065, -0.6804748773574829,  0.07729968428611755,
	 0.11826705187559128,  -0.4777246117591858,  -0.7015717625617981,
	 1.1552454233169556,   0.1169230043888092,   0.2495705932378769,
	 -0.36138930916786194, -0.3240543305873871,  0.2446933388710022,
	 -0.14189907908439636, -0.09274640679359436, 0.6813747882843018,
	 -0.29789313673973083},
	{0.13335876166820526,   -0.23676536977291107, -0.4598279297351837,
	 -0.88376384973526,		-0.4852270483970642,  -1.606242299079895,
	 -0.9401012659072876,   -1.2503643035888672,  0.09044633060693741,
	 -0.41794437170028687,  0.22196903824806213,  -0.3883412778377533,
	 -0.8911248445510864,   -1.0149807929992676,  -1.2553658485412598,
	 -0.8335790038108826,   -1.6341440677642822,  -0.3117102384567261,
	 0.6810539364814758,	-0.9030656218528748,  -0.7461256384849548,
	 -0.5892698764801025,   -1.3457672595977783,  -0.7604944705963135,
	 -1.0432888269424438,   -0.4553483724594116,  -0.6459476947784424,
	 -0.127354696393013,	-0.9450342059135437,  -0.7324121594429016,
	 -0.98084557056427,		-0.5869058966636658,  -1.0826594829559326,
	 -1.3701449632644653,   -0.7693762183189392,  0.5082600712776184,
	 -0.9023772478103638,   -0.7644467949867249,  -0.19579365849494934,
	 0.16919606924057007,   -1.1600003242492676,  -0.8543872833251953,
	 -0.321980744600296,	-0.3654678165912628,  -2.2526814937591553,
	 -0.4128471314907074,   -1.2257797718048096,  -0.9229548573493958,
	 -0.10871539264917374,  -0.6560097336769104,  -0.5820150971412659,
	 0.5007694959640503,	-0.4741535186767578,  -0.7650154829025269,
	 -0.055008839815855026, -0.6248154640197754,  -1.4801706075668335,
	 0.17639969289302826,   -0.2263679802417755,  -0.5810699462890625,
	 -0.5246252417564392,   0.35493314266204834,  -1.93451726436615,
	 -1.491296410560608},
	{0.24414613842964172,  0.6138892769813538,   -0.595037579536438,
	 -0.3940097391605377,  -0.15571072697639465, -0.41951659321784973,
	 -0.6375863552093506,  -0.05268867686390877, 0.07791493833065033,
	 0.40892043709754944,  -0.24649856984615326, -0.04674000293016434,
	 -0.18642224371433258, -0.5164157152175903,  -0.9024505615234375,
	 -0.7833157181739807,  -0.5481568574905396,  -0.6770797967910767,
	 -0.3244163990020752,  -0.6354257464408875,  -0.41959601640701294,
	 -0.24809101223945618, -0.14788730442523956, 0.007985223084688187,
	 0.16678036749362946,  0.08077652752399445,  -0.2451997846364975,
	 -0.23877501487731934, 0.12271416187286377,  0.14735147356987,
	 -0.1274198293685913,  0.04600636288523674,  -0.8712258338928223,
	 -0.342041015625,	  0.024061307311058044, 0.42007705569267273,
	 -0.124008409678936,   0.04404228925704956,  0.23112709820270538,
	 0.18004025518894196,  -0.6737317442893982,  -0.10099157691001892,
	 -0.1803598254919052,  -0.8286123275756836,  -0.6102830767631531,
	 -0.46927255392074585, -0.2685309052467346,  -0.1581713855266571,
	 -0.07541549205780029, -0.8191754221916199,  -0.26935964822769165,
	 0.32427382469177246,  0.9646799564361572,   -1.1093310117721558,
	 -0.295699805021286,   -0.4802262485027313,  -0.555756688117981,
	 0.3455647826194763,   0.5043107867240906,   -0.03698829561471939,
	 -0.5166577696800232,  0.09751486778259277,  0.5726413130760193,
	 0.38225823640823364},
	{-0.08079712092876434,  -0.2178288698196411,  -0.01754293404519558,
	 -1.425784707069397,	0.1284455507993698,   0.5056570172309875,
	 0.6405066847801208,	-1.106268286705017,   -0.9543542265892029,
	 -0.03531977906823158,  0.03283442184329033,  -0.8622366189956665,
	 0.09154326468706131,   0.05571117252111435,  -0.212055042386055,
	 -0.12299662828445435,  0.19495488703250885,  -0.0022707704920321703,
	 0.10702575743198395,   0.04940611869096756,  -0.19274064898490906,
	 0.45179393887519836,   0.29373833537101746,  0.41548410058021545,
	 0.18319252133369446,   0.23063170909881592,  0.03876085206866264,
	 -0.029830627143383026, -0.10202553868293762, -0.683711588382721,
	 0.4092628061771393,	0.33511361479759216,  0.10346532613039017,
	 0.25044912099838257,   0.25154510140419006,  -0.870136022567749,
	 -0.09708163887262344,  -0.38545241951942444, 0.18131385743618011,
	 -0.532281756401062,	0.08686593919992447,  0.0745951384305954,
	 0.27020812034606934,   -0.07309912145137787, 0.1205262839794159,
	 -0.1588754951953888,   0.26958680152893066,  -0.28172484040260315,
	 -0.02945539355278015,  0.7109904289245605,   -0.08460710197687149,
	 -0.10048016160726547,  -0.08693446964025497, -0.4411762058734894,
	 -0.06696560978889465,  0.056204818189144135, -0.3809977173805237,
	 -0.3000848889350891,   0.150198295712471,	-0.08128739893436432,
	 -0.04258697107434273,  0.022822069004178047, -0.8225595951080322,
	 -1.261643648147583},
	{-0.8130279779434204,   -0.2681941092014313,  -0.0060718003660440445,
	 -0.20724554359912872,  -0.17510206997394562, -0.4240449368953705,
	 0.6533777713775635,	-0.2725796103477478,  -0.08594652265310287,
	 -0.4017519950866699,   -0.13717132806777954, 0.5365040898323059,
	 -0.9133303165435791,   -0.49116596579551697, 0.15937210619449615,
	 -0.25186410546302795,  -0.16745783388614655, -0.34433308243751526,
	 -1.1088173389434814,   0.10165397822856903,  -0.19281154870986938,
	 -0.3845190703868866,   0.2739025950431824,   -0.6433892250061035,
	 -0.6635740995407104,   -0.6546798944473267,  0.31269243359565735,
	 -0.2730277478694916,   -0.04368845373392105, 0.12067931145429611,
	 -0.016880134120583534, -0.4852045178413391,  -0.3587873578071594,
	 -0.698276162147522,	-0.3080231547355652,  0.41449713706970215,
	 -0.3498515784740448,   -0.6452154517173767,  -0.488554447889328,
	 -0.7991967797279358,   -0.2191467583179474,  -0.05012359470129013,
	 -0.014979459345340729, -0.46711304783821106, -1.2552536725997925,
	 -0.10386144369840622,  -0.18109488487243652, -0.08543958514928818,
	 -0.6176679730415344,   0.0810876190662384,   -0.6194154024124146,
	 0.18146680295467377,   -0.9714207053184509,  0.5050443410873413,
	 -0.4826541543006897,   -0.3655814528465271,  0.0833565890789032,
	 0.14014659821987152,   -0.22222688794136047, 0.027913931757211685,
	 -0.41954848170280457,  -0.9567422866821289,  0.3780871331691742,
	 -1.096100091934204},
	{-0.5807482004165649,   -0.9054684638977051,  -0.20642542839050293,
	 -0.5301693081855774,   -0.32548603415489197, -0.3567975163459778,
	 -0.8409189581871033,   -0.15342044830322266, 0.21711322665214539,
	 -1.5831409692764282,   -0.6644687652587891,  -0.6594838500022888,
	 0.3169665038585663,	-0.0983472540974617,  -0.8982793688774109,
	 -0.13635528087615967,  -0.09738602489233017, -0.9001774787902832,
	 -0.27682778239250183,  0.14601626992225647,  0.580812394618988,
	 -0.3440508246421814,   -0.6201079487800598,  -0.21889151632785797,
	 -0.023015495389699936, -0.2344036102294922,  0.05709066614508629,
	 -0.9805130958557129,   0.06325624138116837,  0.15489336848258972,
	 -0.33621275424957275,  0.7379013299942017,   -0.3204832077026367,
	 -0.1689174771308899,   -0.13203100860118866, -0.8719526529312134,
	 -0.2484910786151886,   -0.9753761887550354,  0.0598481185734272,
	 0.047537434846162796,  -0.7392984628677368,  -0.9372566938400269,
	 -0.2731190323829651,   -0.48948776721954346, -0.20610803365707397,
	 -0.831066906452179,	-0.3959575593471527,  -0.3924565315246582,
	 -0.5235666632652283,   -0.7203596830368042,  -0.7054829001426697,
	 -0.44469550251960754,  -0.7300115823745728,  -0.9206517934799194,
	 0.27666741609573364,   -1.538442611694336,   0.7917558550834656,
	 -0.44520241022109985,  0.025242285802960396, 0.033746685832738876,
	 0.6243807077407837,	0.455872505903244,	-0.3538140654563904,
	 -0.3508569896221161},
	{0.06499749422073364,  -0.1794852316379547,   0.017215294763445854,
	 -0.22870837152004242, -0.24154826998710632,  -0.2551300823688507,
	 -0.2944503426551819,  -0.022465039044618607, -0.5786833167076111,
	 -0.625977635383606,   -0.09861171990633011,  -0.27240893244743347,
	 -0.4454529285430908,  -0.1789916455745697,   -0.5197097063064575,
	 -0.4483102262020111,  -0.4614051878452301,   0.6066396832466125,
	 -0.5158224701881409,  -0.08844408392906189,  -0.015226392075419426,
	 -0.26156681776046753, -0.40316250920295715,  0.024939170107245445,
	 -0.283651739358902,   -0.03944099694490433,  -0.4319245517253876,
	 0.04082599654793739,  -0.1501736044883728,   -0.4527885913848877,
	 -0.45395714044570923, 0.6375224590301514,	-0.22941195964813232,
	 -0.18683063983917236, 0.20935268700122833,   -0.5901314616203308,
	 0.1970091164112091,   -0.03049618937075138,  -0.07699787616729736,
	 -0.06791996955871582, 0.5211454629898071,	-0.2932097017765045,
	 -0.49344602227211,	-0.25326982140541077,  -0.08545184880495071,
	 -0.3627629280090332,  -0.22015663981437683,  0.15522228181362152,
	 -0.10182733088731766, -0.21477650105953217,  -0.4430517852306366,
	 0.22313888370990753,  -0.6070883870124817,   0.05244165658950806,
	 0.06870356947183609,  -0.29531222581863403,  -0.03590342774987221,
	 -0.07837221026420593, -0.29800543189048767,  0.22104372084140778,
	 -0.05571882426738739, -0.12521058320999146,  -0.15266895294189453,
	 -0.5076307058334351},
	{-0.031458090990781784, -0.5415887236595154,  -1.6734247207641602,
	 -0.6336385011672974,   -0.7238674759864807,  -0.4752443730831146,
	 -0.14391520619392395,  -1.6855062246322632,  0.28740355372428894,
	 -1.1375194787979126,   -0.4059242904186249,  0.4840683937072754,
	 0.126042440533638,		-0.35451972484588623, -0.1371777355670929,
	 0.039361223578453064,  -0.3235224187374115,  -0.028616784140467644,
	 0.35979199409484863,   0.30603617429733276,  -1.3373808860778809,
	 0.31971749663352966,   -0.48579755425453186, -0.3785085380077362,
	 -1.3867803812026978,   -1.116186261177063,   -0.7926744222640991,
	 -0.9624214172363281,   -0.1259176880121231,  0.0325544998049736,
	 0.7802656292915344,	-0.4016016721725464,  -1.3156787157058716,
	 0.07706101983785629,   -0.24027299880981445, -0.3984810709953308,
	 0.2206777185201645,	-1.056984782218933,   -0.1335657238960266,
	 -0.27090176939964294,  -0.4285221993923187,  -0.6500046849250793,
	 0.7301671504974365,	-0.14746573567390442, -0.7199472784996033,
	 -0.424905389547348,	-0.2296149581670761,  -0.30295318365097046,
	 -0.7702702879905701,   -1.7307032346725464,  -1.0401861667633057,
	 0.31246301531791687,   -0.3769027292728424,  -0.788594663143158,
	 -0.5836384296417236,   -0.3417435884475708,  0.017020579427480698,
	 -0.7238129377365112,   -0.7340633869171143,  -0.5028546452522278,
	 0.27278614044189453,   -0.33081522583961487, -0.5220248699188232,
	 -0.15757691860198975},
	{-0.6828885674476624,  0.16536465287208557,  -0.25653648376464844,
	 -0.0666453093290329,  -0.579172670841217,   -0.3736448287963867,
	 0.26177990436553955,  0.09241319447755814,  -0.020077703520655632,
	 0.12123136222362518,  -0.05022208392620087, 0.15870524942874908,
	 -0.2478897124528885,  -0.8303544521331787,  -0.3624376058578491,
	 -0.39560389518737793, -1.0627317428588867,  -0.2210267186164856,
	 -0.49998122453689575, -0.4224742352962494,  -0.9093084335327148,
	 0.5014521479606628,   -0.6156035661697388,  -0.13574282824993134,
	 -0.2430114895105362,  -0.3898334801197052,  -0.03849634900689125,
	 -0.4022754728794098,  -0.5748978853225708,  -0.6500279903411865,
	 -1.1341702938079834,  0.17319297790527344,  -0.3866361975669861,
	 -0.30638086795806885, 0.0626794844865799,   -0.09353510290384293,
	 -0.6012939810752869,  -1.0477759838104248,  -0.6022108197212219,
	 -0.6533274054527283,  -0.240174800157547,   -0.8178027868270874,
	 -0.17525288462638855, -0.3433833718299866,  -1.6131595373153687,
	 0.5291827321052551,   -0.33122390508651733, -0.2442743182182312,
	 1.0354009866714478,   -0.15215960144996643, -0.33205854892730713,
	 -0.34873172640800476, -1.2737529277801514,  -0.5102654695510864,
	 -0.2547203302383423,  -0.40588250756263733, 0.2041599601507187,
	 -0.13390624523162842, -0.6714044809341431,  -0.0827070102095604,
	 -0.6094809770584106,  -0.24812071025371552, -0.896587610244751,
	 0.3592410385608673},
	{0.1037556529045105,   -0.40672561526298523,  -0.32473301887512207,
	 0.2551586925983429,   0.9081863164901733,	0.09939558058977127,
	 -0.4623265862464905,  0.05302897468209267,   0.2118617445230484,
	 -0.10470053553581238, -0.9628845453262329,   0.2454618215560913,
	 -0.0335407480597496,  -1.6894928216934204,   -0.7022632360458374,
	 0.3720196783542633,   -0.5889376997947693,   0.32104524970054626,
	 -0.48865699768066406, -0.024188827723264694, -0.7486941814422607,
	 0.047482479363679886, -0.3399140536785126,   -0.1924554854631424,
	 -0.2497585415840149,  -0.5697590708732605,   -0.8200567960739136,
	 -1.3236310482025146,  0.46922916173934937,   -0.15565460920333862,
	 -0.7783355712890625,  0.9709554314613342,	-0.9178153872489929,
	 0.3815160393714905,   -0.10329318046569824,  0.21791744232177734,
	 0.7006710767745972,   0.2463599294424057,	-0.20433196425437927,
	 -0.16617058217525482, 0.027817964553833008,  -0.4521428048610687,
	 -0.7852462530136108,  -1.1881061792373657,   -1.051239252090454,
	 -0.5616511702537537,  0.03177208825945854,   0.12000193446874619,
	 -0.3438872992992401,  -0.7694506645202637,   -0.3828337490558624,
	 -0.37630802392959595, -1.0334932804107666,   0.3161730170249939,
	 -1.4383741617202759,  -1.419988751411438,	-0.10473009943962097,
	 -1.1558258533477783,  -0.9101412296295166,   -0.28269991278648376,
	 -0.3549865484237671,  -0.41499438881874084,  0.1442846953868866,
	 -0.09452314674854279},
	{-0.18273688852787018,  0.2985723614692688,   -1.0093897581100464,
	 -0.4763040840625763,   -0.4693520665168762,  0.7557522058486938,
	 -0.19031956791877747,  -0.32991930842399597, 0.233676940202713,
	 0.039321426302194595,  -0.04195760190486908, -0.16268280148506165,
	 -0.4341045022010803,   -0.4022046625614166,  -0.42188760638237,
	 -0.10234276950359344,  -0.2771824598312378,  -0.7205714583396912,
	 0.2657436728477478,	-0.16649271547794342, -0.5949584245681763,
	 0.43304550647735596,   -0.7374940514564514,  -0.009280544705688953,
	 -0.6462321281433105,   -1.3879271745681763,  -0.15293815732002258,
	 -1.2064770460128784,   -0.8278083801269531,  0.25651976466178894,
	 -0.04887576028704643,  -0.49075430631637573, -0.8544114828109741,
	 -0.30620408058166504,  -1.0910723209381104,  -0.32035619020462036,
	 -0.49792611598968506,  -0.9194586277008057,  -0.04373190924525261,
	 0.0006362581625580788, -0.3953183591365814,  -0.06517437845468521,
	 -0.15893186628818512,  -0.09648877382278442, 0.9117218255996704,
	 -0.7209581136703491,   -0.06932495534420013, 0.17249205708503723,
	 -0.2561868131160736,   -1.1781295537948608,  -0.5064403414726257,
	 -0.23961569368839264,  -1.0339165925979614,  0.21453699469566345,
	 -0.33602118492126465,  -0.27239561080932617, -0.47536876797676086,
	 -0.9510009288787842,   -0.4746934771537781,  0.09141179174184799,
	 -0.3633936941623688,   0.9726220965385437,   -0.46939706802368164,
	 0.11420153826475143},
	{-0.5257831811904907,  -0.01690053939819336, -0.48259586095809937,
	 -0.5537041425704956,  -0.8630095720291138,  0.09818753600120544,
	 -1.4613100290298462,  0.040484245866537094, 0.11716210097074509,
	 -0.22363616526126862, -1.438707947731018,   1.0203735828399658,
	 -0.43186235427856445, -0.03512738272547722, -0.36934328079223633,
	 -0.49253347516059875, -0.6989433169364929,  0.5468000769615173,
	 -0.0760876014828682,  -0.7859697937965393,  -0.5371256470680237,
	 0.32980164885520935,  -0.10762456059455872, -0.41832783818244934,
	 -0.40403279662132263, -0.5207141041755676,  -0.3071039617061615,
	 0.5363367795944214,   -0.7537781596183777,  -0.9091197848320007,
	 -0.5646234750747681,  -0.5663570761680603,  -0.6084769368171692,
	 -0.5118036866188049,  -0.9853402972221375,  0.5771994590759277,
	 -1.437259554862976,   -0.11975138634443283, -0.45034459233283997,
	 -0.3313150405883789,  0.3355443775653839,   -0.34514206647872925,
	 -0.6366024613380432,  -0.2997710406780243,  -0.8493502140045166,
	 0.4224795997142792,   -0.3812973201274872,  -0.11447049677371979,
	 -0.6687170267105103,  -0.9205637574195862,  -1.0774492025375366,
	 -0.17302152514457703, -0.5881538987159729,  -0.26853787899017334,
	 0.022585533559322357, -0.2777271568775177,  -0.5559002161026001,
	 -0.2949000895023346,  -0.31202179193496704, -0.5554937720298767,
	 -0.7537462711334229,  -1.0738697052001953,  0.844804048538208,
	 -1.1099755764007568},
	{-0.5716029405593872,  -1.2091878652572632,  0.8522266149520874,
	 0.7660044431686401,   -0.37544697523117065, 0.4121396243572235,
	 -0.13415133953094482, -0.03665895387530327, -0.9955200552940369,
	 -0.0770944356918335,  -0.4376436173915863,  -0.3249186873435974,
	 -0.6401844620704651,  0.17998746037483215,  -0.09410883486270905,
	 -0.2970762848854065,  -0.19575285911560059, -0.3515968322753906,
	 -0.22164423763751984, -0.14403295516967773, -0.03232154622673988,
	 -1.7451659440994263,  -0.20124149322509766, 0.06124068796634674,
	 -0.5149248242378235,  -0.3087601661682129,  -0.007199130952358246,
	 0.5636156797409058,   -0.15877273678779602, 0.3764616847038269,
	 -0.43408456444740295, 0.6470721960067749,   0.44792354106903076,
	 -0.8307666182518005,  -0.3914158344268799,  0.4805191457271576,
	 -0.24055977165699005, -0.44366654753685,	-0.49082034826278687,
	 -0.2096463143825531,  -0.09241031110286713, 0.17591969668865204,
	 -0.9067994952201843,  -0.610826313495636,   -0.6235516667366028,
	 0.11938535422086716,  -0.2915485203266144,  -0.574980616569519,
	 -0.10120264440774918, -0.43302345275878906, -0.7695029973983765,
	 0.38969528675079346,  -0.5457689762115479,  -0.01855720765888691,
	 -0.07728882879018784, -0.2704014182090759,  0.02548869699239731,
	 -1.2533904314041138,  0.17303699254989624,  -0.7112462520599365,
	 -0.34696057438850403, -0.13699103891849518, 0.10675163567066193,
	 -1.0838289260864258},
	{-0.8622043132781982,  -0.14657540619373322, -0.5917071104049683,
	 -0.09906172007322311, 0.09125500917434692,  -0.5799277424812317,
	 -0.8013092279434204,  -0.23557421565055847, -0.2695111334323883,
	 0.7317792773246765,   -0.12898200750350952, -0.0430697463452816,
	 -0.6352094411849976,  -1.61289381980896,	-1.563409447669983,
	 -1.3857969045639038,  -1.2679846286773682,  -0.3953864872455597,
	 -1.2647323608398438,  -0.8889298439025879,  -0.7430254220962524,
	 -1.03871488571167,	-1.6592276096343994,  -1.7348474264144897,
	 -0.7791551351547241,  -0.4379799962043762,  -0.4961020350456238,
	 -0.20555144548416138, -1.015307903289795,   -0.2918437123298645,
	 -0.55716472864151,	-0.42295607924461365, -0.35389408469200134,
	 -0.1953943371772766,  -1.290888786315918,   0.3780237138271332,
	 -0.48130038380622864, -0.8717641234397888,  0.326664000749588,
	 0.01989833451807499,  0.9562770128250122,   -1.3631141185760498,
	 0.02692924067378044,  0.030421165749430656, -1.0474755764007568,
	 -0.6471834182739258,  -0.5325340032577515,  0.6687712073326111,
	 0.31350797414779663,  0.31485655903816223,  -0.5807865262031555,
	 -1.108749270439148,   -1.126501441001892,   -0.7469425201416016,
	 0.7977173924446106,   -0.4212401807308197,  -2.19783353805542,
	 -0.0483412891626358,  -0.3253490626811981,  -0.2140790820121765,
	 -0.3442440927028656,  0.2195662558078766,   -1.9734278917312622,
	 -0.020068716257810593},
	{-0.7582308053970337,   -0.5146452784538269,   -0.18083658814430237,
	 -0.11556051671504974,  0.3091324269771576,	-0.5897287726402283,
	 -0.34079208970069885,  -0.7647431492805481,   -0.1192658394575119,
	 -0.976895272731781,	-0.5293582677841187,   -0.0016698543913662434,
	 -0.2406841665506363,   0.10403953492641449,   1.294268250465393,
	 -0.36725515127182007,  -0.40084439516067505,  -1.0005989074707031,
	 -0.32908910512924194,  -0.4363205134868622,   0.06695619225502014,
	 -0.4134722054004669,   -0.6980555653572083,   0.12793375551700592,
	 -0.06743843853473663,  -0.9036332368850708,   -0.6994538307189941,
	 -0.021356772631406784, -0.1161213368177414,   -0.12770238518714905,
	 0.25893670320510864,   0.8615429997444153,	-1.0639830827713013,
	 -0.2682526707649231,   -0.027444392442703247, -0.31500259041786194,
	 -0.5878339409828186,   -0.6214680671691895,   -1.5784931182861328,
	 -0.3051941692829132,   -0.21242554485797882,  0.2869283854961395,
	 0.08968822658061981,   0.19995605945587158,   -0.5029739737510681,
	 -0.4553820490837097,   -0.36782801151275635,  -0.47659167647361755,
	 -0.3592073917388916,   -1.1623700857162476,   0.758945882320404,
	 -0.03422165289521217,  -0.7655821442604065,   0.8118659853935242,
	 0.13816635310649872,   -0.3017241954803467,   -0.23741619288921356,
	 -0.052310895174741745, 0.042356088757514954,  -0.49235832691192627,
